843 200
</s> 0.002001 0.002210 -0.001915 -0.001639 0.000683 0.001511 0.000470 0.000106 -0.001802 0.001109 -0.002178 0.000625 -0.000376 -0.000479 -0.001658 -0.000941 0.001290 0.001513 0.001485 0.000799 0.000772 -0.001901 -0.002048 0.002485 0.001901 0.001545 -0.000302 0.002008 -0.000247 0.000367 -0.000075 -0.001492 0.000656 -0.000669 -0.001913 0.002377 0.002190 -0.000548 -0.000113 0.000255 -0.001819 -0.002004 0.002277 0.000032 -0.001291 -0.001521 -0.001538 0.000848 0.000101 0.000666 -0.002107 -0.001904 -0.000065 0.000572 0.001275 -0.001585 0.002040 0.000463 0.000560 -0.000304 0.001493 -0.001144 -0.001049 0.001079 -0.000377 0.000515 0.000902 -0.002044 -0.000992 0.001457 0.002116 0.001966 -0.001523 -0.001054 -0.000455 0.001001 -0.001894 0.001499 0.001394 -0.000799 -0.000776 -0.001119 0.002114 0.001956 -0.000590 0.002107 0.002410 0.000908 0.002491 -0.001556 -0.000766 -0.001054 -0.001454 0.001407 0.000790 0.000212 -0.001097 0.000762 0.001530 0.000097 0.001140 -0.002476 0.002157 0.000240 -0.000916 -0.001042 -0.000374 -0.001468 -0.002185 -0.001419 0.002139 -0.000885 -0.001340 0.001159 -0.000852 0.002378 -0.000802 -0.002294 0.001358 -0.000037 -0.001744 0.000488 0.000721 -0.000241 0.000912 -0.001979 0.000441 0.000908 -0.001505 0.000071 -0.000030 -0.001200 -0.001416 -0.002347 0.000011 0.000076 0.000005 -0.001967 -0.002481 -0.002373 -0.002163 -0.000274 0.000696 0.000592 -0.001591 0.002499 -0.001006 -0.000637 -0.000702 0.002366 -0.001882 0.000581 -0.000668 0.001594 0.000020 0.002135 -0.001410 -0.001303 -0.002096 -0.001833 -0.001600 -0.001557 0.001222 -0.000933 0.001340 0.001845 0.000678 0.001475 0.001238 0.001170 -0.001775 -0.001717 -0.001828 -0.000066 0.002065 -0.001368 -0.001530 -0.002098 0.001653 -0.002089 -0.000290 0.001089 -0.002309 -0.002239 0.000721 0.001762 0.002132 0.001073 0.001581 -0.001564 -0.001820 0.001987 -0.001382 0.000877 0.000287 0.000895 -0.000591 0.000099 -0.000843 -0.000563 
руб. -0.101944 -0.032493 0.151839 -0.077650 0.013715 -0.050903 0.163583 -0.121684 -0.129758 0.289849 0.119151 0.101080 -0.136137 -0.169665 -0.036770 0.028567 0.112192 0.255877 -0.114691 -0.029734 -0.095769 0.079420 0.157436 0.118921 0.164367 0.121129 0.067883 0.072873 0.234278 0.079858 0.098973 -0.023024 -0.145593 -0.074106 -0.034526 -0.034796 0.161958 -0.086181 0.000393 0.242062 -0.159000 0.035125 0.022114 -0.168701 0.049944 -0.118453 -0.088393 -0.068365 0.308729 -0.127248 0.078168 -0.073985 0.160739 0.029032 -0.128160 -0.064930 -0.106267 0.152277 0.033233 -0.273688 0.164060 -0.020991 -0.021024 0.115825 -0.175475 0.006249 0.113981 -0.012336 -0.010426 0.100435 -0.234282 0.137637 0.025263 -0.114698 -0.116315 0.042933 -0.301027 0.091682 -0.184777 0.103414 -0.002206 -0.233163 0.112970 0.273059 0.162405 0.175868 -0.073997 0.054898 0.054098 0.012439 0.009584 0.171635 0.107904 -0.006586 -0.070666 -0.077256 0.153696 0.025946 -0.014271 0.029262 -0.009603 0.089196 -0.005212 0.063726 0.110559 0.237470 0.099842 -0.007559 0.061885 0.175699 0.106796 0.267723 0.227459 -0.200970 0.160127 0.202722 0.040402 -0.107707 -0.004823 -0.092874 -0.016403 0.109724 0.024839 -0.245503 0.161618 -0.052021 0.278376 0.016356 0.114014 -0.091773 -0.104758 0.107336 -0.033776 0.091591 -0.023270 0.258709 0.086086 -0.168868 0.044539 -0.275276 -0.123749 0.067896 -0.150964 0.218896 0.146482 0.163498 0.030886 -0.128525 -0.196573 -0.144676 -0.003455 -0.016489 -0.175628 0.092169 -0.047295 0.036029 0.168033 0.166264 -0.002992 -0.135283 -0.104587 -0.214477 -0.032725 -0.135058 -0.155494 -0.029699 0.124503 -0.086082 0.183109 0.019232 0.048430 0.153684 0.160243 0.146028 -0.155963 -0.060858 0.108129 -0.180253 -0.162730 0.010428 -0.016401 -0.111781 0.184463 -0.093085 0.180947 0.109132 0.066545 0.100274 0.022256 0.049055 0.015159 0.089793 -0.162443 0.086233 0.106840 -0.071547 -0.155297 0.087214 -0.241188 -0.150789 
с -0.121772 -0.035461 0.179183 -0.093857 0.025456 -0.056841 0.186918 -0.143762 -0.152355 0.354136 0.138500 0.134517 -0.156853 -0.201457 -0.044401 0.029209 0.125348 0.312210 -0.136887 -0.030311 -0.118349 0.097113 0.191348 0.134001 0.202945 0.137758 0.081463 0.085790 0.291670 0.091320 0.120558 -0.020812 -0.179383 -0.086285 -0.034201 -0.037826 0.187315 -0.092986 0.005571 0.296534 -0.192018 0.039977 0.016512 -0.204809 0.068408 -0.150041 -0.104629 -0.088693 0.378943 -0.142866 0.101692 -0.093291 0.196529 0.045703 -0.161216 -0.075559 -0.117719 0.187027 0.039276 -0.329419 0.198241 -0.020442 -0.028779 0.138900 -0.219094 0.010255 0.137813 -0.015791 -0.005994 0.125212 -0.271500 0.162394 0.034550 -0.132618 -0.149033 0.061715 -0.367853 0.109527 -0.211698 0.127802 0.001897 -0.287983 0.128797 0.323977 0.200303 0.215215 -0.080146 0.074545 0.067856 0.019284 0.021512 0.203656 0.136006 -0.009147 -0.089225 -0.089338 0.193097 0.041186 -0.012929 0.039094 -0.010618 0.109118 -0.008378 0.079122 0.136913 0.287832 0.116991 -0.003721 0.069305 0.208513 0.132838 0.318458 0.269029 -0.240879 0.196358 0.242434 0.053044 -0.123231 -0.010184 -0.109406 -0.014472 0.125254 0.042249 -0.297764 0.198978 -0.059557 0.329961 0.017086 0.136442 -0.109351 -0.122835 0.135101 -0.041529 0.109315 -0.029026 0.309457 0.104689 -0.202040 0.045075 -0.335568 -0.147311 0.084173 -0.174463 0.258636 0.170265 0.204333 0.039559 -0.154968 -0.244447 -0.177255 -0.011628 -0.017486 -0.210328 0.112009 -0.047852 0.038601 0.212619 0.189961 -0.003412 -0.156333 -0.131023 -0.258014 -0.039794 -0.162827 -0.194646 -0.039043 0.154545 -0.105406 0.226177 0.020725 0.066874 0.178609 0.199143 0.181019 -0.183343 -0.066659 0.138218 -0.212430 -0.195986 0.016388 -0.017199 -0.137671 0.224534 -0.108324 0.213889 0.137837 0.072987 0.119483 0.025565 0.065407 0.022789 0.115814 -0.196338 0.101752 0.132065 -0.091395 -0.189443 0.103571 -0.291897 -0.185515 
текстом -0.117012 -0.037327 0.180276 -0.096413 0.023049 -0.057216 0.189867 -0.146219 -0.151081 0.353383 0.137387 0.132603 -0.160324 -0.200285 -0.042895 0.026093 0.129746 0.310588 -0.140853 -0.031635 -0.116053 0.093220 0.190444 0.135850 0.203685 0.137077 0.080078 0.087047 0.288948 0.094151 0.123655 -0.018855 -0.181607 -0.087825 -0.031817 -0.035579 0.189563 -0.093171 0.007221 0.293022 -0.192297 0.043658 0.015415 -0.203710 0.064875 -0.143617 -0.108839 -0.089026 0.381530 -0.144259 0.100347 -0.093093 0.198289 0.043882 -0.158755 -0.072313 -0.118225 0.186222 0.038437 -0.329785 0.196817 -0.019940 -0.030421 0.134198 -0.217279 0.012135 0.136308 -0.019163 -0.006541 0.125118 -0.273758 0.166808 0.032877 -0.133128 -0.146803 0.058783 -0.367136 0.113016 -0.215246 0.128232 -0.001402 -0.290514 0.132907 0.328700 0.198336 0.213927 -0.083413 0.073294 0.070400 0.018864 0.022600 0.205326 0.133223 -0.011644 -0.091167 -0.090797 0.191107 0.041785 -0.014563 0.039965 -0.009322 0.109752 -0.004222 0.078516 0.133850 0.288385 0.114308 -0.008992 0.073713 0.209280 0.134870 0.317480 0.272558 -0.238734 0.193615 0.240867 0.051753 -0.124552 -0.009760 -0.110235 -0.012313 0.128295 0.041761 -0.292670 0.194028 -0.058220 0.335202 0.016604 0.136789 -0.107757 -0.124702 0.135502 -0.039496 0.111162 -0.030879 0.312103 0.105119 -0.206245 0.044517 -0.333077 -0.147928 0.086458 -0.176696 0.256713 0.170147 0.208052 0.041311 -0.151866 -0.246412 -0.177455 -0.009860 -0.015559 -0.211079 0.112487 -0.047153 0.037696 0.211363 0.190609 -0.000804 -0.158601 -0.132061 -0.258868 -0.037276 -0.165248 -0.193135 -0.036923 0.151740 -0.107397 0.225093 0.020965 0.063234 0.181050 0.195037 0.177654 -0.186255 -0.066159 0.137351 -0.216205 -0.193999 0.011928 -0.017880 -0.138408 0.225963 -0.109891 0.211320 0.138234 0.076439 0.123368 0.026032 0.060919 0.021190 0.113588 -0.191220 0.105402 0.132147 -0.095925 -0.191482 0.105466 -0.292568 -0.182001 
вашим -0.118011 -0.040203 0.185707 -0.098837 0.027350 -0.059922 0.195258 -0.149480 -0.152700 0.358969 0.138289 0.131459 -0.160472 -0.203879 -0.044009 0.025402 0.131543 0.312374 -0.142792 -0.032030 -0.120033 0.094900 0.191831 0.137671 0.202514 0.138207 0.081589 0.083964 0.294525 0.096192 0.122100 -0.020476 -0.183415 -0.090909 -0.034207 -0.036450 0.196021 -0.099116 0.002757 0.299447 -0.195075 0.042032 0.014213 -0.208863 0.067145 -0.150208 -0.108233 -0.090901 0.386155 -0.148474 0.102425 -0.095957 0.200005 0.038400 -0.163639 -0.075808 -0.120669 0.186700 0.039366 -0.335924 0.202839 -0.018653 -0.027759 0.137992 -0.219129 0.009795 0.136593 -0.014882 -0.008386 0.126587 -0.276708 0.162835 0.036583 -0.139459 -0.148683 0.057349 -0.371146 0.115507 -0.220581 0.129815 -0.001392 -0.293720 0.135102 0.335089 0.196384 0.216591 -0.087947 0.074786 0.069079 0.015597 0.020181 0.204195 0.139206 -0.008835 -0.089572 -0.088979 0.195133 0.041900 -0.013804 0.039567 -0.008482 0.109903 -0.002495 0.079029 0.136920 0.289030 0.120297 -0.004618 0.077290 0.216346 0.133571 0.322905 0.278780 -0.245855 0.196073 0.246705 0.050189 -0.129199 -0.011422 -0.111931 -0.017480 0.131338 0.037191 -0.301150 0.200843 -0.062199 0.340293 0.019522 0.136155 -0.113299 -0.126619 0.136159 -0.040220 0.112571 -0.029047 0.311191 0.106488 -0.207263 0.044242 -0.342576 -0.150896 0.085433 -0.180117 0.264336 0.170344 0.210265 0.038102 -0.154246 -0.247645 -0.178762 -0.006174 -0.018491 -0.216225 0.113988 -0.048584 0.040972 0.213540 0.196960 -0.005444 -0.158373 -0.135557 -0.264687 -0.037819 -0.167144 -0.193520 -0.033505 0.157450 -0.107391 0.225120 0.023099 0.063995 0.179131 0.198691 0.182878 -0.186585 -0.066765 0.140276 -0.218243 -0.194061 0.014131 -0.015989 -0.142402 0.227630 -0.110349 0.219676 0.137401 0.075967 0.125678 0.022654 0.066923 0.021083 0.113539 -0.196488 0.108939 0.134547 -0.095417 -0.194754 0.110122 -0.296412 -0.184465 
для -0.122542 -0.035020 0.178656 -0.098344 0.018596 -0.057544 0.193166 -0.139231 -0.152207 0.349078 0.137833 0.124377 -0.163868 -0.202404 -0.044535 0.025934 0.131324 0.309520 -0.138397 -0.034048 -0.113454 0.087284 0.187605 0.135624 0.202124 0.141631 0.077437 0.091638 0.282936 0.096032 0.119144 -0.024913 -0.178572 -0.087094 -0.036177 -0.035505 0.193110 -0.100284 0.006540 0.294730 -0.190868 0.040884 0.026775 -0.206651 0.057339 -0.139329 -0.104947 -0.084675 0.373203 -0.145961 0.100070 -0.094490 0.195288 0.041496 -0.157800 -0.075519 -0.129774 0.188959 0.034471 -0.326438 0.192427 -0.025738 -0.025820 0.140447 -0.220553 0.009097 0.131796 -0.013677 -0.010880 0.119918 -0.275063 0.160017 0.030726 -0.135225 -0.143048 0.056555 -0.359925 0.104733 -0.219428 0.123794 -0.002636 -0.280710 0.131092 0.326521 0.195312 0.208966 -0.090670 0.066051 0.064495 0.017009 0.013713 0.206771 0.133550 -0.006966 -0.087457 -0.089638 0.183704 0.034809 -0.009598 0.034827 -0.008175 0.102204 -0.007374 0.077250 0.130760 0.286847 0.121580 -0.003166 0.068838 0.209602 0.126670 0.319069 0.277777 -0.239695 0.201752 0.241582 0.043949 -0.128190 -0.012711 -0.103313 -0.013113 0.128365 0.033288 -0.297335 0.191216 -0.060139 0.331073 0.016980 0.133797 -0.108551 -0.119915 0.126957 -0.039424 0.107799 -0.031246 0.309360 0.105470 -0.204841 0.045485 -0.328352 -0.146061 0.083489 -0.183088 0.259855 0.169168 0.197029 0.035736 -0.152388 -0.235990 -0.173331 -0.008915 -0.022381 -0.208363 0.111044 -0.053760 0.048513 0.206919 0.197133 0.000597 -0.155198 -0.127921 -0.254650 -0.039031 -0.163992 -0.195011 -0.037559 0.150003 -0.107010 0.219190 0.025573 0.059250 0.177416 0.191157 0.179856 -0.185610 -0.067308 0.129730 -0.209868 -0.197131 0.018333 -0.023795 -0.134608 0.224467 -0.106459 0.216408 0.134792 0.081431 0.115344 0.022810 0.063751 0.022298 0.112333 -0.189825 0.099143 0.126523 -0.088294 -0.187199 0.105892 -0.283636 -0.179918 
Вашим -0.122869 -0.033721 0.184319 -0.096177 0.018413 -0.058111 0.193092 -0.148529 -0.156690 0.358359 0.139331 0.134099 -0.161694 -0.207108 -0.039546 0.026095 0.129133 0.312502 -0.141798 -0.035546 -0.123787 0.096205 0.193163 0.135708 0.206947 0.143207 0.080780 0.092077 0.293966 0.094192 0.121097 -0.020142 -0.179337 -0.090322 -0.033212 -0.034797 0.192274 -0.102272 0.007000 0.301228 -0.191456 0.044156 0.023752 -0.210318 0.066724 -0.149202 -0.107299 -0.089471 0.381875 -0.148886 0.103132 -0.097887 0.200726 0.045796 -0.159176 -0.078838 -0.124186 0.186980 0.037154 -0.331168 0.200453 -0.020743 -0.026291 0.142532 -0.218939 0.011147 0.138101 -0.017236 -0.009276 0.122593 -0.275698 0.170401 0.027457 -0.134814 -0.143475 0.058882 -0.368327 0.112115 -0.215571 0.130723 0.002944 -0.289987 0.134888 0.327442 0.200264 0.211473 -0.081701 0.073190 0.069623 0.019986 0.017358 0.208812 0.139100 -0.005394 -0.087491 -0.091933 0.195844 0.038202 -0.007380 0.038250 -0.008593 0.107212 -0.010701 0.075734 0.136080 0.294290 0.118371 -0.008744 0.067856 0.208497 0.132808 0.323043 0.273394 -0.242773 0.200452 0.243736 0.050613 -0.130355 -0.014524 -0.106950 -0.015954 0.128033 0.037611 -0.303474 0.194510 -0.063052 0.336154 0.013699 0.136803 -0.112709 -0.123534 0.137016 -0.044915 0.111402 -0.028711 0.317642 0.102138 -0.208118 0.049662 -0.337029 -0.146773 0.082863 -0.178860 0.260876 0.172817 0.203299 0.038524 -0.154810 -0.245485 -0.181163 -0.013387 -0.015214 -0.211581 0.111877 -0.047720 0.043420 0.212985 0.193892 -0.000158 -0.161772 -0.130652 -0.262148 -0.037273 -0.170203 -0.196002 -0.039090 0.151169 -0.104790 0.228464 0.017951 0.064728 0.183890 0.203343 0.178402 -0.187489 -0.065632 0.137343 -0.216712 -0.203348 0.020423 -0.021661 -0.138677 0.227929 -0.106461 0.215462 0.137444 0.077099 0.123358 0.028544 0.061386 0.017191 0.116869 -0.193734 0.100923 0.131536 -0.093341 -0.185313 0.101142 -0.293005 -0.184449 
Кружка -0.136876 -0.045248 0.208714 -0.109183 0.025084 -0.069155 0.220298 -0.165881 -0.179169 0.397747 0.158410 0.143949 -0.188607 -0.234300 -0.049865 0.034021 0.148046 0.356233 -0.161929 -0.044248 -0.133167 0.109497 0.215194 0.158831 0.228343 0.164205 0.090170 0.099950 0.328847 0.106647 0.136880 -0.025710 -0.203943 -0.099294 -0.044658 -0.048348 0.224307 -0.111092 0.002404 0.336061 -0.218732 0.047021 0.021806 -0.232045 0.066837 -0.165146 -0.125082 -0.099926 0.432201 -0.174591 0.107686 -0.102442 0.222369 0.043238 -0.184062 -0.086707 -0.140681 0.213743 0.042865 -0.377138 0.228409 -0.024103 -0.026174 0.161598 -0.248894 0.011087 0.150802 -0.017034 -0.010068 0.139095 -0.317136 0.188646 0.035123 -0.156633 -0.166165 0.064558 -0.417088 0.127255 -0.250624 0.145561 -0.002818 -0.330017 0.152477 0.375539 0.223278 0.243627 -0.101930 0.079394 0.073687 0.022872 0.019985 0.232877 0.152260 -0.007562 -0.098883 -0.100534 0.216174 0.042512 -0.017449 0.037781 -0.011450 0.123519 -0.006912 0.086308 0.154076 0.325710 0.133713 -0.004743 0.085092 0.242036 0.149042 0.367386 0.314110 -0.273236 0.220993 0.278795 0.054373 -0.142218 -0.012300 -0.123677 -0.021029 0.145990 0.035480 -0.340844 0.223194 -0.066616 0.381577 0.020136 0.155079 -0.121718 -0.142470 0.153165 -0.046914 0.125874 -0.034369 0.352379 0.121108 -0.233137 0.055833 -0.382964 -0.171431 0.094662 -0.203342 0.298318 0.197527 0.230433 0.041477 -0.176647 -0.277688 -0.196921 -0.006681 -0.016810 -0.239516 0.127730 -0.057633 0.048143 0.234048 0.222754 -0.002420 -0.181714 -0.146182 -0.293450 -0.047249 -0.188383 -0.218358 -0.042638 0.175317 -0.120074 0.252588 0.023658 0.068615 0.204327 0.226910 0.202015 -0.214374 -0.079816 0.152131 -0.243741 -0.224997 0.016310 -0.019705 -0.158242 0.259211 -0.126121 0.247360 0.149515 0.088463 0.140938 0.032056 0.071745 0.021797 0.127421 -0.220986 0.118083 0.145895 -0.103411 -0.217968 0.119318 -0.334341 -0.206503 
Набор -0.127639 -0.040320 0.182958 -0.100451 0.016724 -0.060333 0.204264 -0.147235 -0.158527 0.360214 0.144377 0.129230 -0.163592 -0.212347 -0.046580 0.027300 0.137203 0.316497 -0.139182 -0.041709 -0.114817 0.092363 0.192708 0.140178 0.210910 0.147918 0.078070 0.091881 0.292913 0.098601 0.124633 -0.024769 -0.180770 -0.091354 -0.038936 -0.038419 0.202843 -0.099796 0.006964 0.304200 -0.193637 0.047452 0.031830 -0.213260 0.063960 -0.147292 -0.110793 -0.092869 0.381980 -0.158485 0.093336 -0.092896 0.204762 0.038532 -0.163593 -0.077121 -0.129043 0.192968 0.040018 -0.336219 0.204630 -0.028423 -0.024013 0.146525 -0.220486 0.005994 0.133924 -0.013502 -0.015018 0.129599 -0.290063 0.170021 0.032083 -0.137907 -0.146617 0.060227 -0.368020 0.117359 -0.230265 0.130202 -0.007760 -0.294041 0.139296 0.341649 0.202970 0.216921 -0.091184 0.066848 0.061583 0.019742 0.008848 0.209914 0.133132 -0.007804 -0.090559 -0.090816 0.193405 0.029513 -0.018616 0.030617 -0.008942 0.112516 -0.006306 0.078844 0.131058 0.291645 0.121255 -0.000231 0.080741 0.218901 0.134652 0.333926 0.284391 -0.248774 0.208289 0.251586 0.049844 -0.128905 -0.013014 -0.109360 -0.016717 0.138234 0.033498 -0.308381 0.197730 -0.065425 0.343457 0.014604 0.140206 -0.108487 -0.133100 0.134211 -0.043493 0.109618 -0.032741 0.320377 0.109904 -0.207636 0.048738 -0.343196 -0.150726 0.084940 -0.186579 0.275175 0.180405 0.204232 0.041970 -0.161107 -0.246748 -0.177194 -0.001765 -0.023259 -0.214075 0.120171 -0.054047 0.044152 0.209290 0.205771 0.003792 -0.165398 -0.128088 -0.262040 -0.043134 -0.170797 -0.201402 -0.037829 0.152946 -0.111215 0.230367 0.021024 0.057767 0.184631 0.199703 0.183461 -0.190781 -0.078676 0.133369 -0.225759 -0.200164 0.022954 -0.024947 -0.139260 0.233778 -0.111824 0.219725 0.136493 0.082364 0.123949 0.023833 0.062253 0.018165 0.111983 -0.205639 0.108545 0.128236 -0.093356 -0.188571 0.106046 -0.298454 -0.189094 
именем -0.119952 -0.036360 0.175748 -0.093012 0.020362 -0.054045 0.191555 -0.139343 -0.152329 0.343856 0.136395 0.127879 -0.160132 -0.203372 -0.041005 0.028332 0.125297 0.305738 -0.140438 -0.037500 -0.118589 0.096349 0.188934 0.132161 0.195507 0.143610 0.081177 0.088668 0.282156 0.088581 0.118315 -0.019849 -0.172210 -0.084553 -0.036496 -0.035501 0.190945 -0.097533 0.004173 0.288930 -0.184017 0.041709 0.024431 -0.199593 0.063474 -0.146654 -0.103154 -0.085016 0.366245 -0.147296 0.093479 -0.092432 0.188474 0.038595 -0.157962 -0.077286 -0.120129 0.181279 0.038074 -0.321184 0.191172 -0.017810 -0.023505 0.139346 -0.212036 0.010339 0.133403 -0.015847 -0.015769 0.116735 -0.270860 0.163462 0.025655 -0.133621 -0.138440 0.058501 -0.356724 0.109780 -0.214193 0.122829 0.000494 -0.281507 0.126704 0.318663 0.195547 0.202436 -0.079483 0.070317 0.069310 0.015624 0.015476 0.200306 0.131393 -0.004605 -0.088326 -0.083083 0.189109 0.030795 -0.014209 0.033473 -0.007304 0.101970 -0.013279 0.071553 0.130780 0.285296 0.118310 -0.006367 0.072575 0.203622 0.130332 0.313966 0.266661 -0.234045 0.189727 0.236359 0.051884 -0.123895 -0.012360 -0.107368 -0.017128 0.123641 0.035019 -0.291425 0.190696 -0.062184 0.324436 0.013934 0.133487 -0.107743 -0.122700 0.130338 -0.043191 0.103869 -0.029314 0.307385 0.098959 -0.198648 0.047235 -0.324715 -0.145946 0.084358 -0.173076 0.252157 0.168423 0.199210 0.036255 -0.152550 -0.232041 -0.169745 -0.009557 -0.018226 -0.205242 0.109084 -0.048082 0.039943 0.204738 0.189079 -0.000234 -0.159085 -0.126381 -0.253496 -0.036660 -0.160789 -0.188120 -0.036553 0.145410 -0.104518 0.218731 0.017796 0.056756 0.179855 0.195880 0.172157 -0.186229 -0.069859 0.133237 -0.210445 -0.195027 0.019355 -0.021290 -0.137823 0.223543 -0.107111 0.209855 0.130575 0.078353 0.122419 0.026283 0.061267 0.014998 0.108716 -0.194229 0.101372 0.121770 -0.092822 -0.182343 0.102243 -0.286258 -0.178478 
фото -0.115215 -0.033822 0.171782 -0.092959 0.015427 -0.059829 0.187174 -0.131173 -0.143344 0.326396 0.133011 0.115085 -0.156746 -0.191484 -0.041156 0.023195 0.118420 0.285567 -0.129052 -0.037874 -0.104679 0.087628 0.179735 0.127819 0.191368 0.129651 0.074628 0.082612 0.268379 0.086696 0.107043 -0.025912 -0.160934 -0.078526 -0.036845 -0.033665 0.180815 -0.099577 0.005422 0.268657 -0.176338 0.040859 0.030815 -0.192915 0.052332 -0.133338 -0.096540 -0.077384 0.348406 -0.143705 0.086352 -0.083679 0.183499 0.033551 -0.147148 -0.071985 -0.117970 0.177237 0.032623 -0.309434 0.180961 -0.025369 -0.021823 0.128504 -0.201469 0.013430 0.124392 -0.016163 -0.009277 0.111152 -0.259816 0.155076 0.029000 -0.122801 -0.130518 0.048697 -0.331535 0.097914 -0.204868 0.113319 -0.006478 -0.264153 0.123088 0.301974 0.177303 0.190617 -0.088361 0.062339 0.064806 0.014444 0.013878 0.194838 0.119563 -0.005785 -0.078157 -0.084392 0.170492 0.034005 -0.017618 0.030435 -0.003991 0.094397 -0.008308 0.066861 0.121902 0.268877 0.112187 -0.002629 0.065655 0.197326 0.123224 0.298493 0.255320 -0.220717 0.186495 0.225205 0.042694 -0.118724 -0.010621 -0.097720 -0.011656 0.123414 0.025831 -0.277899 0.179509 -0.056003 0.309149 0.016614 0.123485 -0.100046 -0.111246 0.119326 -0.035407 0.100912 -0.028061 0.290030 0.099191 -0.190636 0.044592 -0.306137 -0.141424 0.072686 -0.169891 0.242724 0.158051 0.184512 0.035036 -0.137843 -0.223904 -0.159425 -0.007210 -0.016827 -0.195801 0.105586 -0.052403 0.042586 0.187658 0.183492 -0.000546 -0.148913 -0.120726 -0.235051 -0.037014 -0.150267 -0.178302 -0.034083 0.140180 -0.096705 0.207795 0.023366 0.055619 0.171659 0.183392 0.166236 -0.174732 -0.064183 0.124348 -0.196507 -0.181952 0.017555 -0.020851 -0.127051 0.205658 -0.101622 0.200207 0.118458 0.073450 0.113713 0.023065 0.055496 0.015405 0.103905 -0.177531 0.090267 0.116721 -0.081184 -0.172025 0.098120 -0.268130 -0.167301 
Фляжка -0.115102 -0.027521 0.171063 -0.090228 0.017725 -0.052609 0.179548 -0.138395 -0.140989 0.328446 0.130056 0.123487 -0.153165 -0.189238 -0.042115 0.028015 0.119486 0.290954 -0.130592 -0.030684 -0.109429 0.084821 0.176555 0.125842 0.193271 0.132130 0.076319 0.082384 0.271550 0.088353 0.112610 -0.015178 -0.167670 -0.086085 -0.031346 -0.037183 0.175614 -0.089933 0.007687 0.278372 -0.179085 0.040757 0.022846 -0.196049 0.061524 -0.137709 -0.095169 -0.083814 0.355114 -0.138215 0.096254 -0.091607 0.184514 0.040902 -0.149947 -0.072124 -0.118077 0.169777 0.037762 -0.307330 0.186156 -0.016258 -0.030652 0.131299 -0.203897 0.013667 0.131238 -0.016876 -0.005353 0.113367 -0.259446 0.157833 0.024136 -0.128430 -0.132833 0.055921 -0.340055 0.101721 -0.204783 0.116045 -0.001343 -0.266374 0.121203 0.305484 0.186588 0.199040 -0.075655 0.065071 0.059480 0.021301 0.016086 0.193004 0.123720 -0.005277 -0.084079 -0.082781 0.175970 0.035123 -0.009800 0.034388 -0.008305 0.095747 -0.008496 0.070306 0.123926 0.268922 0.115301 -0.004510 0.060746 0.197429 0.125442 0.298506 0.254578 -0.225099 0.188355 0.228915 0.050576 -0.119383 -0.009185 -0.099750 -0.013032 0.118073 0.037798 -0.277939 0.179010 -0.058346 0.311530 0.011582 0.128442 -0.100816 -0.114663 0.122431 -0.039833 0.102289 -0.030267 0.293739 0.096562 -0.193204 0.043352 -0.310477 -0.135252 0.073199 -0.168081 0.246126 0.156478 0.186261 0.034239 -0.145575 -0.224554 -0.165283 -0.011310 -0.016549 -0.195404 0.106333 -0.047457 0.039481 0.198162 0.182898 0.002059 -0.145313 -0.122098 -0.240349 -0.037580 -0.156600 -0.183259 -0.034833 0.140360 -0.093803 0.210873 0.022583 0.057956 0.167243 0.186158 0.167046 -0.177875 -0.060454 0.127129 -0.203994 -0.185094 0.017686 -0.017526 -0.126759 0.208720 -0.097265 0.203867 0.129177 0.075287 0.112353 0.020585 0.056426 0.019577 0.108411 -0.175445 0.092459 0.118641 -0.081916 -0.177718 0.099965 -0.270175 -0.168746 
Рамка -0.119925 -0.036128 0.175058 -0.093082 0.017303 -0.058767 0.194028 -0.133881 -0.150559 0.339917 0.139005 0.123113 -0.163311 -0.198440 -0.038383 0.027372 0.126173 0.298781 -0.133761 -0.038210 -0.108283 0.091678 0.187554 0.131080 0.197385 0.135515 0.076399 0.084280 0.278334 0.093576 0.115317 -0.023641 -0.169349 -0.082531 -0.038371 -0.036278 0.190740 -0.103115 0.007399 0.281341 -0.188175 0.037254 0.031658 -0.199486 0.054008 -0.139703 -0.103207 -0.084228 0.363098 -0.147862 0.090568 -0.088885 0.185998 0.033694 -0.148920 -0.072727 -0.127696 0.185025 0.036509 -0.319652 0.183767 -0.027178 -0.021239 0.137246 -0.211548 0.012318 0.125568 -0.014479 -0.011579 0.113686 -0.272338 0.157176 0.030036 -0.133787 -0.134860 0.053954 -0.347317 0.104574 -0.208501 0.117728 -0.008285 -0.276660 0.129675 0.315253 0.185757 0.201160 -0.091983 0.064798 0.065603 0.017605 0.011770 0.201631 0.121535 -0.006532 -0.082846 -0.090155 0.179303 0.036328 -0.017879 0.030033 -0.004396 0.099738 -0.006183 0.070597 0.126081 0.276299 0.118001 -0.002368 0.072320 0.201396 0.125845 0.310198 0.270924 -0.230317 0.196819 0.237633 0.041841 -0.122045 -0.013035 -0.101432 -0.014207 0.131693 0.024424 -0.288169 0.186623 -0.056661 0.323002 0.019744 0.129420 -0.101376 -0.119410 0.124140 -0.035210 0.105183 -0.029836 0.301758 0.101188 -0.195392 0.046224 -0.322359 -0.147368 0.074945 -0.177698 0.252449 0.167722 0.190655 0.031547 -0.144969 -0.226740 -0.165895 -0.005380 -0.017530 -0.201827 0.107588 -0.057401 0.042462 0.196448 0.187400 -0.002062 -0.153064 -0.121251 -0.247020 -0.036654 -0.152517 -0.188060 -0.037361 0.149909 -0.101041 0.211547 0.023430 0.058315 0.176520 0.185362 0.170317 -0.178053 -0.068242 0.126319 -0.203716 -0.187241 0.020181 -0.020957 -0.134450 0.217396 -0.106072 0.210644 0.121765 0.081684 0.116752 0.026246 0.061266 0.017011 0.110509 -0.186476 0.096966 0.121934 -0.083834 -0.180547 0.105305 -0.278886 -0.175254 
напитков -0.114814 -0.029424 0.173030 -0.089926 0.016625 -0.057289 0.180451 -0.135915 -0.142134 0.332425 0.127924 0.122377 -0.151657 -0.190206 -0.041173 0.027321 0.121763 0.293819 -0.128727 -0.028747 -0.112249 0.087606 0.176555 0.127101 0.191841 0.131043 0.073674 0.085633 0.275447 0.088754 0.111138 -0.016795 -0.170177 -0.082154 -0.034291 -0.034730 0.181677 -0.091565 0.004135 0.279940 -0.177053 0.038270 0.023950 -0.197709 0.060930 -0.134482 -0.098357 -0.085262 0.357397 -0.139681 0.096360 -0.088567 0.187025 0.037555 -0.150385 -0.072616 -0.118550 0.171539 0.034784 -0.312096 0.185241 -0.018162 -0.030148 0.131691 -0.207426 0.014548 0.127816 -0.016332 -0.003868 0.111988 -0.260278 0.156058 0.028701 -0.126682 -0.137594 0.053894 -0.343632 0.099387 -0.204796 0.121766 0.002120 -0.267682 0.126988 0.310056 0.183739 0.199734 -0.078435 0.066050 0.059757 0.022248 0.013496 0.190010 0.128090 -0.004251 -0.082401 -0.085716 0.179183 0.037583 -0.007670 0.031999 -0.006083 0.097060 -0.009783 0.074525 0.126493 0.274028 0.112696 -0.004579 0.063840 0.193751 0.125464 0.303749 0.255255 -0.231408 0.189570 0.229151 0.048359 -0.118334 -0.007198 -0.100612 -0.014645 0.121095 0.034868 -0.283132 0.181541 -0.058115 0.315474 0.015023 0.131296 -0.103856 -0.114644 0.122026 -0.036211 0.102447 -0.030203 0.292284 0.098431 -0.196776 0.045549 -0.312988 -0.138621 0.077925 -0.167570 0.244866 0.159106 0.187181 0.033938 -0.147711 -0.228126 -0.167558 -0.012389 -0.017467 -0.199679 0.104926 -0.050844 0.040381 0.202466 0.182166 -0.000063 -0.148932 -0.122809 -0.239712 -0.037014 -0.157442 -0.184874 -0.037609 0.140101 -0.099795 0.211501 0.023374 0.061481 0.166811 0.187256 0.165978 -0.179136 -0.063920 0.127722 -0.201674 -0.187483 0.014904 -0.017168 -0.129473 0.213322 -0.099711 0.202663 0.127926 0.073780 0.110042 0.024232 0.058814 0.021268 0.105552 -0.177884 0.091325 0.122467 -0.085011 -0.178621 0.101194 -0.271701 -0.169454 
880 -0.051972 -0.016154 0.081028 -0.041690 0.010078 -0.025869 0.085795 -0.065393 -0.071489 0.155363 0.063912 0.057383 -0.073696 -0.089467 -0.017982 0.016184 0.058672 0.138518 -0.063510 -0.019031 -0.052683 0.043032 0.085235 0.061667 0.087811 0.062313 0.036498 0.039955 0.128565 0.040729 0.053044 -0.014046 -0.080703 -0.041474 -0.015406 -0.018976 0.086010 -0.042832 0.002945 0.132210 -0.085259 0.016123 0.013535 -0.091532 0.025449 -0.065711 -0.046934 -0.037366 0.168072 -0.068352 0.045100 -0.039777 0.086339 0.018238 -0.068594 -0.032738 -0.056896 0.081844 0.014633 -0.146205 0.089364 -0.010162 -0.013427 0.065077 -0.097244 0.003962 0.060658 -0.007563 -0.006130 0.056060 -0.122672 0.072262 0.011372 -0.061857 -0.063780 0.024590 -0.163694 0.047859 -0.096400 0.058029 0.000509 -0.128606 0.062964 0.143780 0.084116 0.095408 -0.037845 0.032339 0.026552 0.009579 0.003532 0.092393 0.057065 -0.002098 -0.040695 -0.042303 0.084716 0.015471 -0.004110 0.015138 -0.001546 0.048438 -0.002371 0.032893 0.059541 0.127824 0.054969 -0.000824 0.031473 0.093604 0.059431 0.140826 0.122640 -0.106272 0.088439 0.110420 0.023616 -0.056732 -0.004862 -0.046653 -0.005871 0.057450 0.014154 -0.132411 0.088160 -0.026533 0.150935 0.007926 0.057926 -0.047956 -0.054047 0.056383 -0.018864 0.047039 -0.016164 0.138966 0.046753 -0.092772 0.022946 -0.148480 -0.070003 0.035379 -0.081926 0.118252 0.078944 0.087613 0.018287 -0.070069 -0.104986 -0.079603 -0.003385 -0.008880 -0.094697 0.051029 -0.023276 0.022415 0.090077 0.087419 0.001736 -0.071833 -0.056795 -0.116638 -0.018945 -0.075594 -0.083744 -0.015665 0.069428 -0.048158 0.097044 0.007806 0.027314 0.081702 0.085703 0.081928 -0.085204 -0.030897 0.056835 -0.097023 -0.087280 0.008512 -0.012034 -0.062347 0.099169 -0.050316 0.095067 0.059818 0.035438 0.054073 0.013388 0.028903 0.010113 0.048882 -0.089416 0.047521 0.056185 -0.041489 -0.084041 0.049382 -0.131231 -0.082384 
616 -0.054826 -0.017284 0.086282 -0.043383 0.007515 -0.028829 0.092771 -0.065399 -0.071513 0.162043 0.067474 0.060052 -0.079046 -0.095501 -0.021592 0.012855 0.059069 0.145785 -0.066278 -0.017980 -0.055327 0.042438 0.086859 0.067034 0.095069 0.066007 0.039481 0.043377 0.133052 0.041675 0.054593 -0.012352 -0.082034 -0.039466 -0.018510 -0.019563 0.091106 -0.046372 0.003459 0.138034 -0.090242 0.017460 0.012861 -0.094324 0.026965 -0.067574 -0.052239 -0.039424 0.177683 -0.071795 0.044153 -0.040973 0.090489 0.016921 -0.076896 -0.035774 -0.061183 0.088179 0.015530 -0.154550 0.093515 -0.008991 -0.010441 0.068378 -0.100835 0.002305 0.062492 -0.007966 -0.005475 0.057884 -0.130914 0.076449 0.012035 -0.063062 -0.068775 0.024955 -0.170065 0.049788 -0.103677 0.059283 -0.000221 -0.131499 0.063805 0.152255 0.092630 0.098250 -0.041785 0.033505 0.032089 0.008945 0.008040 0.097944 0.061957 -0.002750 -0.038874 -0.040482 0.088412 0.013696 -0.004402 0.015877 -0.002078 0.050462 -0.002057 0.035887 0.063218 0.132634 0.054395 -0.004747 0.036969 0.100545 0.060100 0.149840 0.131052 -0.113814 0.092477 0.111730 0.023110 -0.061269 -0.004742 -0.053417 -0.006686 0.060668 0.013012 -0.140451 0.091121 -0.030509 0.157283 0.005827 0.063579 -0.049286 -0.060535 0.058996 -0.020418 0.049310 -0.013756 0.143384 0.050211 -0.097392 0.024629 -0.157578 -0.072366 0.037412 -0.083207 0.124073 0.083110 0.094580 0.019943 -0.073064 -0.112508 -0.079990 -0.005670 -0.007581 -0.098888 0.050805 -0.022616 0.018732 0.095443 0.091935 0.000688 -0.074552 -0.059203 -0.121937 -0.017212 -0.075216 -0.089356 -0.016514 0.073396 -0.047155 0.104095 0.010177 0.028755 0.086307 0.092944 0.083756 -0.086695 -0.033445 0.064019 -0.100590 -0.089498 0.009188 -0.009986 -0.066394 0.104614 -0.049977 0.100916 0.061712 0.037347 0.055107 0.011166 0.028532 0.009659 0.050890 -0.089745 0.049357 0.058265 -0.044849 -0.089953 0.047215 -0.134649 -0.087382 
Пакет_подарочный -0.160222 -0.052586 0.245041 -0.128443 0.023805 -0.081269 0.261876 -0.196142 -0.211904 0.465542 0.188471 0.171564 -0.221517 -0.277692 -0.055478 0.046733 0.175558 0.415339 -0.190337 -0.050498 -0.159054 0.126165 0.257518 0.189431 0.268768 0.190526 0.102060 0.118319 0.387658 0.125051 0.160280 -0.032643 -0.238547 -0.117651 -0.048555 -0.056128 0.266385 -0.135698 0.004061 0.395537 -0.258562 0.060508 0.036506 -0.271081 0.080249 -0.192764 -0.145964 -0.115084 0.503259 -0.205296 0.131874 -0.121699 0.264107 0.045194 -0.209774 -0.101045 -0.175118 0.249716 0.048989 -0.443628 0.262827 -0.032852 -0.031315 0.186521 -0.288932 0.010853 0.182511 -0.017969 -0.019452 0.157122 -0.380863 0.215646 0.040243 -0.187922 -0.191032 0.072047 -0.489546 0.143858 -0.301583 0.174518 -0.005195 -0.380387 0.187755 0.436554 0.259940 0.283901 -0.122527 0.093669 0.086337 0.028307 0.017878 0.277706 0.176162 -0.005209 -0.119493 -0.124223 0.253220 0.045482 -0.017919 0.046186 -0.004667 0.145243 -0.009439 0.099408 0.175027 0.386161 0.163724 -0.003784 0.101418 0.287118 0.174755 0.432911 0.373510 -0.323545 0.266786 0.325757 0.063829 -0.173725 -0.015462 -0.146868 -0.026386 0.176568 0.038327 -0.395957 0.263853 -0.084161 0.448106 0.022264 0.180870 -0.142622 -0.164991 0.172867 -0.057198 0.146664 -0.042567 0.416653 0.142594 -0.277800 0.069100 -0.449813 -0.207017 0.108458 -0.242700 0.351486 0.235377 0.272152 0.051666 -0.207877 -0.318277 -0.235198 -0.007059 -0.029147 -0.282466 0.150436 -0.075535 0.060426 0.274554 0.267620 -0.000256 -0.213203 -0.169079 -0.347466 -0.056575 -0.217725 -0.257841 -0.050837 0.205084 -0.139774 0.293506 0.031923 0.078854 0.243460 0.261823 0.243469 -0.248052 -0.097778 0.172964 -0.288335 -0.262047 0.017299 -0.031454 -0.189227 0.299893 -0.142296 0.290304 0.177210 0.112285 0.165878 0.033338 0.076337 0.026032 0.146115 -0.264515 0.134784 0.170906 -0.120495 -0.254039 0.144691 -0.392784 -0.239607 
Часы_настенные -0.141557 -0.045295 0.213649 -0.114001 0.023227 -0.066889 0.226084 -0.169284 -0.183222 0.407471 0.166766 0.148199 -0.191605 -0.240687 -0.049311 0.037614 0.155454 0.361401 -0.168948 -0.040488 -0.138370 0.106559 0.221255 0.164277 0.237481 0.165317 0.091077 0.103970 0.335976 0.109243 0.136006 -0.027294 -0.208544 -0.102647 -0.045206 -0.049730 0.227204 -0.116932 0.004933 0.347146 -0.223940 0.048371 0.031379 -0.242273 0.068174 -0.167615 -0.126933 -0.103079 0.437969 -0.179258 0.113695 -0.104076 0.228024 0.045949 -0.185070 -0.091371 -0.147133 0.219036 0.042966 -0.387065 0.229098 -0.025217 -0.030673 0.164293 -0.250055 0.008001 0.156081 -0.017530 -0.013629 0.142672 -0.325137 0.194508 0.032902 -0.161231 -0.167427 0.067255 -0.423949 0.125524 -0.254364 0.150925 -0.006103 -0.336976 0.156092 0.384139 0.225133 0.245987 -0.103814 0.079467 0.074247 0.022134 0.012616 0.239110 0.152225 -0.009572 -0.100568 -0.108289 0.221316 0.038277 -0.018902 0.038671 -0.010825 0.122132 -0.007437 0.089697 0.154971 0.338617 0.140130 -0.008996 0.085387 0.245715 0.153005 0.376269 0.324153 -0.280919 0.227937 0.285723 0.054745 -0.151348 -0.015217 -0.127545 -0.016562 0.153122 0.035842 -0.344025 0.228584 -0.071824 0.394966 0.018445 0.156329 -0.128283 -0.147052 0.150629 -0.044803 0.125994 -0.031740 0.361264 0.122083 -0.242642 0.060834 -0.388532 -0.174049 0.095200 -0.210457 0.308366 0.204408 0.238589 0.044045 -0.181673 -0.280332 -0.204059 -0.010996 -0.022035 -0.245425 0.132455 -0.063763 0.050603 0.241322 0.230285 -0.000344 -0.184610 -0.151029 -0.301395 -0.048944 -0.193799 -0.224568 -0.045275 0.179328 -0.120439 0.261939 0.025000 0.064467 0.213225 0.230914 0.207984 -0.216686 -0.082894 0.155101 -0.254312 -0.229655 0.018140 -0.023745 -0.163826 0.264935 -0.129582 0.252926 0.157678 0.095136 0.143144 0.033583 0.069803 0.020165 0.127878 -0.229757 0.119318 0.147371 -0.104216 -0.220399 0.122847 -0.343676 -0.209996 
Тарелка_декоративная -0.127617 -0.040666 0.195787 -0.101132 0.023816 -0.066424 0.206603 -0.156022 -0.165375 0.373421 0.148524 0.139271 -0.170840 -0.220509 -0.048759 0.030451 0.142671 0.331355 -0.150851 -0.038594 -0.126044 0.102720 0.205778 0.147677 0.214616 0.153633 0.084320 0.095678 0.308620 0.099918 0.128498 -0.026142 -0.191875 -0.096663 -0.041611 -0.044689 0.207023 -0.105692 0.005546 0.315679 -0.206092 0.047498 0.020784 -0.221539 0.064432 -0.153698 -0.113327 -0.091767 0.405603 -0.160206 0.103027 -0.096802 0.212356 0.039913 -0.171290 -0.080551 -0.134186 0.198385 0.041624 -0.353146 0.210449 -0.020586 -0.025034 0.151756 -0.232961 0.012201 0.146735 -0.014460 -0.013327 0.133420 -0.295003 0.173122 0.034747 -0.146330 -0.157091 0.058684 -0.389928 0.117962 -0.235498 0.137520 -0.001947 -0.307503 0.142723 0.354782 0.210799 0.226550 -0.095521 0.074719 0.070175 0.016390 0.019149 0.219164 0.140353 -0.009959 -0.097338 -0.094936 0.200716 0.037737 -0.017019 0.042237 -0.011095 0.118436 -0.004828 0.084159 0.144240 0.309228 0.127185 -0.007029 0.078701 0.227816 0.140264 0.344975 0.294690 -0.257256 0.207826 0.261127 0.050963 -0.135913 -0.008753 -0.118908 -0.017299 0.140694 0.035702 -0.319033 0.208980 -0.064708 0.361655 0.018262 0.142174 -0.116623 -0.135271 0.141531 -0.045264 0.119531 -0.033626 0.334049 0.115778 -0.223862 0.049352 -0.357653 -0.160009 0.091656 -0.189084 0.278073 0.184171 0.217867 0.040245 -0.164182 -0.262592 -0.187944 -0.010145 -0.018179 -0.224002 0.120554 -0.055009 0.045384 0.221238 0.210818 -0.004104 -0.168514 -0.140895 -0.277064 -0.040677 -0.177981 -0.207775 -0.039081 0.166721 -0.112685 0.237595 0.022373 0.066948 0.193235 0.210547 0.193674 -0.197711 -0.072960 0.145396 -0.228411 -0.211542 0.014612 -0.019831 -0.147848 0.242350 -0.118084 0.229820 0.145809 0.081912 0.133145 0.026263 0.066060 0.024957 0.120127 -0.211514 0.110473 0.140116 -0.101789 -0.203110 0.111649 -0.314115 -0.197571 
Бумага_упаковочная -0.150608 -0.045238 0.231402 -0.119610 0.027871 -0.076806 0.247211 -0.185448 -0.196952 0.443497 0.177661 0.162660 -0.208429 -0.259016 -0.058558 0.038068 0.165497 0.388936 -0.178813 -0.046603 -0.147060 0.116389 0.239076 0.178473 0.253475 0.177945 0.099938 0.112414 0.364162 0.117923 0.150731 -0.033332 -0.226472 -0.111164 -0.048162 -0.048019 0.247962 -0.127930 0.005392 0.372426 -0.239565 0.051332 0.029955 -0.256661 0.073499 -0.181550 -0.133474 -0.109343 0.477506 -0.194392 0.119695 -0.112152 0.249626 0.046649 -0.202105 -0.097910 -0.162730 0.239051 0.050043 -0.421222 0.250301 -0.027129 -0.032895 0.178175 -0.272070 0.010151 0.169997 -0.017598 -0.015560 0.154560 -0.355484 0.205523 0.036383 -0.175754 -0.180657 0.069036 -0.458347 0.139419 -0.280135 0.163468 -0.005028 -0.363095 0.172371 0.411252 0.241465 0.269592 -0.111350 0.086420 0.082463 0.020680 0.017779 0.256959 0.165380 -0.007772 -0.111292 -0.115626 0.240097 0.042295 -0.021841 0.045532 -0.011301 0.137348 -0.007499 0.093974 0.166818 0.365118 0.154420 -0.005983 0.095607 0.266977 0.164004 0.406698 0.346514 -0.301883 0.249071 0.307892 0.058818 -0.163476 -0.010241 -0.138189 -0.023043 0.163075 0.042653 -0.375651 0.248296 -0.077067 0.427448 0.020676 0.170355 -0.136981 -0.159865 0.162031 -0.052936 0.138749 -0.036928 0.392623 0.135047 -0.262128 0.063666 -0.420125 -0.191389 0.102687 -0.224601 0.333832 0.220359 0.253795 0.044449 -0.194558 -0.302193 -0.215916 -0.009622 -0.026625 -0.265369 0.141440 -0.065194 0.057963 0.263066 0.247594 -0.003217 -0.200603 -0.161732 -0.327652 -0.054256 -0.205650 -0.244772 -0.047774 0.194416 -0.133495 0.278969 0.029761 0.074687 0.233018 0.249565 0.229126 -0.235149 -0.090881 0.165971 -0.270817 -0.248710 0.016526 -0.027058 -0.173768 0.285741 -0.135966 0.276789 0.169748 0.101224 0.157073 0.033578 0.077205 0.023471 0.136997 -0.244048 0.127189 0.161582 -0.113206 -0.239437 0.131531 -0.367758 -0.231326 
Футболка_мужская -0.141222 -0.042464 0.212981 -0.112154 0.026038 -0.070786 0.227376 -0.171401 -0.183529 0.413964 0.165745 0.151040 -0.189621 -0.240772 -0.051715 0.036136 0.153707 0.363668 -0.167034 -0.040508 -0.139697 0.112073 0.223562 0.159264 0.239074 0.167243 0.092498 0.105663 0.337911 0.110651 0.141054 -0.029489 -0.211614 -0.101097 -0.041273 -0.045646 0.229786 -0.117145 0.005713 0.345491 -0.223194 0.049364 0.022153 -0.240051 0.073043 -0.170118 -0.124475 -0.102761 0.445870 -0.174593 0.116953 -0.107088 0.233369 0.047639 -0.187356 -0.090699 -0.147329 0.222133 0.047086 -0.389552 0.231952 -0.023373 -0.029946 0.166301 -0.253058 0.011733 0.159204 -0.017062 -0.010659 0.143221 -0.327739 0.193371 0.038544 -0.159547 -0.169765 0.068928 -0.429493 0.131332 -0.255774 0.147357 -0.002054 -0.339866 0.156077 0.386050 0.229535 0.250102 -0.106676 0.086300 0.078009 0.019282 0.021586 0.241388 0.157809 -0.012642 -0.106033 -0.104167 0.221957 0.041903 -0.018887 0.045318 -0.011573 0.124083 -0.006749 0.090424 0.156228 0.334946 0.138473 -0.006641 0.089865 0.249154 0.153997 0.374418 0.322803 -0.285217 0.233571 0.284021 0.054308 -0.149041 -0.013327 -0.127731 -0.018292 0.150328 0.038824 -0.346211 0.228831 -0.070166 0.395056 0.018809 0.156494 -0.125837 -0.148282 0.157674 -0.047875 0.129241 -0.034075 0.363714 0.125501 -0.242557 0.053665 -0.393562 -0.174598 0.097721 -0.210610 0.306396 0.199947 0.241667 0.042743 -0.179864 -0.286095 -0.203401 -0.006333 -0.018482 -0.248436 0.135763 -0.059650 0.049490 0.243227 0.230723 -0.003218 -0.187596 -0.149691 -0.302601 -0.044302 -0.191243 -0.225341 -0.045921 0.181523 -0.122747 0.263698 0.027097 0.069973 0.214127 0.232311 0.208216 -0.217563 -0.083918 0.160250 -0.252241 -0.226980 0.019390 -0.019630 -0.165631 0.262249 -0.127447 0.254459 0.157557 0.092277 0.140824 0.030510 0.070755 0.024773 0.129258 -0.227282 0.125095 0.154786 -0.109094 -0.222384 0.123219 -0.341629 -0.214640 
именной_гравировкой -0.159846 -0.048476 0.239065 -0.131952 0.027752 -0.078375 0.265775 -0.193569 -0.204863 0.467619 0.186875 0.172537 -0.214314 -0.275037 -0.057638 0.035759 0.177129 0.414721 -0.187403 -0.052327 -0.156416 0.123252 0.255938 0.186380 0.272561 0.193127 0.108846 0.116475 0.388774 0.124823 0.159308 -0.035124 -0.240548 -0.120910 -0.053391 -0.046919 0.262072 -0.131101 0.006018 0.397561 -0.256388 0.054966 0.033410 -0.277016 0.083426 -0.195157 -0.143565 -0.118665 0.504670 -0.203515 0.129411 -0.120185 0.265272 0.051562 -0.214651 -0.098529 -0.167974 0.253115 0.052281 -0.444109 0.262896 -0.032982 -0.034882 0.188040 -0.291711 0.008215 0.178404 -0.015472 -0.016153 0.165053 -0.373531 0.216314 0.041842 -0.183151 -0.190603 0.079631 -0.489888 0.143746 -0.298201 0.174349 -0.006261 -0.385893 0.184922 0.441232 0.261290 0.280898 -0.119505 0.094749 0.087404 0.028276 0.017113 0.278025 0.177842 -0.007073 -0.117813 -0.124690 0.254885 0.044349 -0.016879 0.043266 -0.011201 0.142918 -0.009136 0.105865 0.179331 0.385834 0.163306 -0.003985 0.096970 0.284163 0.175004 0.430681 0.373396 -0.325088 0.267750 0.326333 0.059011 -0.172066 -0.013484 -0.146191 -0.017505 0.175261 0.047264 -0.400685 0.261854 -0.084838 0.451835 0.021528 0.185022 -0.145752 -0.168405 0.172963 -0.058643 0.145135 -0.042921 0.414609 0.143766 -0.272731 0.066134 -0.449527 -0.202997 0.115012 -0.240549 0.354808 0.234723 0.271284 0.050543 -0.209430 -0.318632 -0.229858 -0.005672 -0.029943 -0.285082 0.151492 -0.068774 0.059132 0.275961 0.262778 0.000333 -0.212645 -0.172622 -0.347240 -0.057191 -0.222280 -0.258915 -0.046570 0.202485 -0.141296 0.295766 0.028425 0.080599 0.247274 0.263735 0.238481 -0.250597 -0.098038 0.175900 -0.290029 -0.261206 0.025036 -0.029525 -0.187974 0.301912 -0.142254 0.289539 0.175443 0.107304 0.162043 0.030850 0.084529 0.028396 0.148720 -0.259830 0.138458 0.170127 -0.122134 -0.251270 0.138495 -0.389506 -0.245490 
430 -0.013437 -0.002412 0.020356 -0.008512 0.004343 -0.008368 0.020590 -0.014484 -0.014725 0.037371 0.014232 0.015237 -0.018386 -0.022599 -0.007089 0.005307 0.014733 0.031340 -0.015388 -0.006184 -0.015123 0.010460 0.022030 0.016086 0.021697 0.014873 0.007851 0.008788 0.033571 0.008558 0.014342 -0.001447 -0.017882 -0.007252 -0.001711 -0.006274 0.020506 -0.008676 -0.001553 0.033140 -0.020628 0.004671 0.002982 -0.023833 0.005484 -0.016015 -0.009614 -0.010673 0.042880 -0.016004 0.008485 -0.012119 0.023646 0.002852 -0.018112 -0.006721 -0.015892 0.022255 0.005883 -0.036844 0.020886 -0.004520 -0.003012 0.014037 -0.025213 0.003219 0.016570 -0.000451 0.000117 0.013517 -0.030934 0.015547 0.001724 -0.015125 -0.016310 0.007596 -0.040526 0.010486 -0.024727 0.015732 -0.001101 -0.028597 0.013798 0.034271 0.023184 0.024339 -0.010287 0.006604 0.008327 0.000372 0.003685 0.023023 0.016345 0.000926 -0.008778 -0.012088 0.020826 0.004587 -0.002274 0.004172 -0.001759 0.014095 -0.002075 0.009048 0.016321 0.029426 0.013973 0.000878 0.007219 0.024730 0.013350 0.036332 0.031684 -0.027908 0.019164 0.027822 0.007623 -0.015635 -0.003462 -0.013931 -0.001654 0.013270 0.003815 -0.033329 0.021118 -0.007232 0.035944 0.000131 0.012638 -0.012888 -0.014084 0.015752 -0.002344 0.010444 -0.002420 0.034191 0.012399 -0.021420 0.006047 -0.038193 -0.016874 0.008033 -0.017583 0.026365 0.018259 0.019977 0.003440 -0.015892 -0.028080 -0.019844 -0.002231 -0.003603 -0.023712 0.011083 -0.004381 0.003519 0.020369 0.022614 0.001074 -0.016972 -0.012968 -0.027257 -0.001990 -0.018660 -0.020537 -0.005201 0.017164 -0.009581 0.024160 0.000151 0.004256 0.020740 0.021669 0.019883 -0.022769 -0.006923 0.016627 -0.021198 -0.022483 0.003423 -0.003433 -0.016295 0.026797 -0.011336 0.022033 0.011835 0.009078 0.013126 0.004445 0.008604 0.002866 0.010904 -0.022126 0.013009 0.012050 -0.011473 -0.021459 0.009727 -0.033256 -0.020097 
301 -0.052666 -0.017772 0.076487 -0.040929 0.009673 -0.025258 0.085537 -0.062150 -0.066700 0.151113 0.061762 0.054035 -0.071332 -0.090813 -0.020194 0.012213 0.055128 0.134499 -0.059273 -0.018541 -0.050286 0.042310 0.080270 0.059606 0.084942 0.063884 0.036160 0.037989 0.122338 0.042360 0.050473 -0.012164 -0.077172 -0.040150 -0.015112 -0.015969 0.082859 -0.043139 0.003600 0.128927 -0.083615 0.020517 0.011911 -0.090423 0.027350 -0.061947 -0.048011 -0.037943 0.160762 -0.063737 0.043143 -0.036407 0.084824 0.016807 -0.070530 -0.032565 -0.054055 0.082611 0.014317 -0.141978 0.086925 -0.010981 -0.008662 0.060752 -0.093968 0.006150 0.060468 -0.007125 -0.005946 0.051504 -0.120130 0.070066 0.011468 -0.060755 -0.063342 0.022748 -0.159034 0.044592 -0.094857 0.056239 -0.003182 -0.125446 0.057300 0.140097 0.082768 0.090130 -0.037493 0.029506 0.028211 0.007332 0.008268 0.089736 0.058137 -0.002432 -0.039468 -0.036840 0.081580 0.014880 -0.005586 0.013263 -0.001838 0.047530 -0.005158 0.030823 0.054596 0.123251 0.051207 -0.001468 0.033094 0.089937 0.057249 0.138225 0.118869 -0.106214 0.084131 0.105680 0.019085 -0.054292 -0.002431 -0.048011 -0.007052 0.058486 0.013204 -0.127788 0.085821 -0.025069 0.147644 0.008895 0.059231 -0.044771 -0.052054 0.055959 -0.018631 0.044588 -0.015313 0.133028 0.048276 -0.091234 0.019548 -0.144658 -0.067671 0.034272 -0.079479 0.112618 0.075256 0.089466 0.018009 -0.066961 -0.105757 -0.073055 -0.002757 -0.007206 -0.091808 0.047203 -0.023849 0.017302 0.090303 0.086399 -0.001557 -0.067134 -0.053511 -0.114071 -0.016041 -0.069598 -0.081419 -0.017872 0.065759 -0.044536 0.098482 0.011269 0.023986 0.079153 0.085951 0.075395 -0.081924 -0.030087 0.058129 -0.092672 -0.082553 0.007378 -0.010394 -0.057756 0.099686 -0.048311 0.093590 0.055724 0.037075 0.054061 0.013115 0.025958 0.007289 0.046880 -0.086197 0.042730 0.054055 -0.038645 -0.081621 0.043870 -0.125884 -0.078878 
Коробка_подарочная -0.140354 -0.046864 0.212769 -0.109933 0.021166 -0.071021 0.230086 -0.171730 -0.188721 0.408111 0.165891 0.144323 -0.194951 -0.239874 -0.051860 0.036205 0.157186 0.364089 -0.164187 -0.042501 -0.136718 0.107676 0.224400 0.163116 0.237177 0.165117 0.089798 0.107871 0.338025 0.112368 0.137612 -0.030003 -0.211046 -0.104162 -0.042146 -0.046286 0.238616 -0.122945 0.002674 0.346693 -0.226014 0.048068 0.033143 -0.240426 0.069596 -0.170186 -0.128913 -0.100554 0.446598 -0.180844 0.115076 -0.107301 0.231567 0.040431 -0.185857 -0.094253 -0.152383 0.225101 0.048334 -0.395038 0.233735 -0.027308 -0.028407 0.169444 -0.256840 0.010964 0.158374 -0.018039 -0.015132 0.141143 -0.336141 0.192372 0.038384 -0.164438 -0.169310 0.067268 -0.427533 0.128737 -0.264471 0.155719 -0.001655 -0.337846 0.164596 0.388077 0.229342 0.247142 -0.108346 0.078890 0.075502 0.018149 0.015323 0.244749 0.156392 -0.007609 -0.102602 -0.106055 0.220552 0.041369 -0.014266 0.042257 -0.008629 0.129152 -0.007760 0.093519 0.153923 0.339757 0.141104 -0.009819 0.087368 0.247214 0.155775 0.380812 0.324498 -0.285244 0.235255 0.288347 0.057039 -0.150809 -0.012042 -0.131159 -0.017190 0.155465 0.036881 -0.349061 0.230126 -0.075862 0.397994 0.022654 0.159250 -0.128604 -0.153212 0.152368 -0.047512 0.129674 -0.034967 0.368934 0.130207 -0.241410 0.058325 -0.390369 -0.179644 0.094798 -0.210514 0.315121 0.207764 0.238035 0.046371 -0.178868 -0.283066 -0.204694 -0.012010 -0.023433 -0.246282 0.133738 -0.064543 0.051630 0.242954 0.232107 -0.001344 -0.184733 -0.153503 -0.305598 -0.047885 -0.195751 -0.227986 -0.047413 0.181778 -0.120029 0.262521 0.027921 0.065201 0.218554 0.235048 0.211880 -0.223704 -0.083884 0.157942 -0.252429 -0.229014 0.018119 -0.024857 -0.160184 0.265584 -0.128153 0.255241 0.155130 0.098167 0.146391 0.029910 0.074077 0.023879 0.130669 -0.230421 0.118742 0.152788 -0.105753 -0.224182 0.127237 -0.349977 -0.215339 
в -0.150216 -0.046559 0.223547 -0.119642 0.023307 -0.076552 0.240542 -0.177338 -0.192940 0.429471 0.169666 0.155611 -0.203541 -0.251486 -0.055900 0.034418 0.162083 0.376456 -0.170848 -0.043424 -0.143579 0.114685 0.234185 0.170694 0.243684 0.174261 0.096668 0.109005 0.352866 0.112912 0.146881 -0.032039 -0.214020 -0.106528 -0.046203 -0.047166 0.237525 -0.125752 0.001993 0.362454 -0.234345 0.049187 0.031685 -0.248877 0.073348 -0.174015 -0.131057 -0.109961 0.463199 -0.185261 0.120529 -0.110750 0.242516 0.048451 -0.196892 -0.092655 -0.159208 0.231007 0.049028 -0.408833 0.240407 -0.030384 -0.029031 0.169581 -0.263564 0.013893 0.163326 -0.018155 -0.014841 0.152467 -0.342938 0.203983 0.035424 -0.166528 -0.171861 0.063383 -0.446045 0.135264 -0.267383 0.156088 -0.003394 -0.355716 0.167001 0.405832 0.238793 0.257852 -0.109278 0.084458 0.076178 0.019302 0.015842 0.250546 0.160098 -0.013062 -0.108079 -0.109442 0.233411 0.041325 -0.017800 0.039745 -0.012928 0.128659 -0.008309 0.095012 0.157299 0.357110 0.140644 -0.010226 0.088928 0.260110 0.159099 0.397062 0.339265 -0.298539 0.241371 0.298217 0.059119 -0.157735 -0.016004 -0.135634 -0.016879 0.162789 0.036323 -0.361852 0.241544 -0.071733 0.415379 0.021557 0.164733 -0.134748 -0.153080 0.162469 -0.051805 0.132862 -0.033580 0.383021 0.131375 -0.250375 0.063513 -0.411790 -0.185149 0.097404 -0.219762 0.323242 0.211776 0.243960 0.043264 -0.186458 -0.295409 -0.213359 -0.012426 -0.021529 -0.254570 0.137353 -0.066197 0.056063 0.251216 0.243482 0.002381 -0.195972 -0.159074 -0.319114 -0.049166 -0.203173 -0.232249 -0.044874 0.182339 -0.125539 0.273308 0.028578 0.067178 0.224503 0.244537 0.219870 -0.230964 -0.083269 0.161262 -0.261557 -0.242335 0.018172 -0.022878 -0.169365 0.271851 -0.128635 0.266026 0.163714 0.100768 0.151134 0.033116 0.078686 0.021465 0.135341 -0.238932 0.126866 0.161102 -0.110309 -0.229287 0.128711 -0.358770 -0.222374 
детская -0.124658 -0.040661 0.182390 -0.097788 0.023294 -0.061691 0.195061 -0.149235 -0.156868 0.358024 0.144414 0.129887 -0.162962 -0.206656 -0.045355 0.033063 0.132314 0.317661 -0.139942 -0.038063 -0.115356 0.092756 0.193604 0.138677 0.209068 0.142719 0.076640 0.086834 0.295496 0.099097 0.125935 -0.024885 -0.184714 -0.089307 -0.036025 -0.037505 0.195576 -0.099935 0.001544 0.297984 -0.194260 0.045139 0.019381 -0.208703 0.064455 -0.145080 -0.110697 -0.086178 0.383058 -0.153000 0.100114 -0.090549 0.201500 0.038826 -0.160125 -0.080689 -0.125132 0.191707 0.039779 -0.340483 0.201849 -0.024443 -0.027036 0.143963 -0.222752 0.010453 0.136809 -0.013741 -0.009349 0.121167 -0.283884 0.167821 0.035682 -0.140379 -0.150582 0.060363 -0.370372 0.115553 -0.218936 0.127863 -0.004595 -0.296118 0.137580 0.337696 0.204205 0.214349 -0.089729 0.072690 0.064387 0.015159 0.019358 0.207010 0.138493 -0.012595 -0.086893 -0.090981 0.193523 0.041587 -0.010241 0.038664 -0.009481 0.113854 -0.004684 0.080995 0.131606 0.290561 0.120328 -0.005371 0.077664 0.217259 0.135928 0.324166 0.278813 -0.245512 0.200299 0.244346 0.048186 -0.127029 -0.009738 -0.113699 -0.015576 0.130892 0.035839 -0.300576 0.203220 -0.059636 0.342137 0.017826 0.137179 -0.107777 -0.129876 0.135864 -0.039404 0.110014 -0.028030 0.315872 0.107874 -0.212772 0.047083 -0.337808 -0.153703 0.085572 -0.180366 0.261620 0.172098 0.210781 0.037730 -0.153803 -0.250715 -0.181110 -0.006290 -0.019029 -0.211285 0.118086 -0.052218 0.040803 0.210948 0.200721 0.000755 -0.161502 -0.132614 -0.264635 -0.039217 -0.165481 -0.194098 -0.034759 0.158891 -0.107169 0.232028 0.024644 0.059510 0.184046 0.202424 0.181919 -0.187861 -0.070695 0.139014 -0.215400 -0.195721 0.017806 -0.016403 -0.141158 0.231835 -0.113120 0.218488 0.140307 0.080010 0.122696 0.024404 0.060010 0.024397 0.113011 -0.198524 0.104342 0.136216 -0.092860 -0.193666 0.110155 -0.296221 -0.189912 
Пивная_кружка -0.147170 -0.048132 0.218503 -0.114393 0.028157 -0.072520 0.236823 -0.177632 -0.187288 0.430753 0.170547 0.154865 -0.196281 -0.249373 -0.055929 0.037022 0.161699 0.380042 -0.169685 -0.042641 -0.140648 0.114200 0.232109 0.166727 0.247809 0.170660 0.098879 0.107728 0.352733 0.117943 0.146660 -0.028783 -0.217332 -0.109124 -0.042749 -0.049768 0.237912 -0.119043 0.007385 0.359275 -0.231254 0.052600 0.026248 -0.248736 0.075688 -0.178607 -0.133985 -0.105571 0.459700 -0.182783 0.121223 -0.111270 0.238689 0.047285 -0.193708 -0.094586 -0.154752 0.228974 0.042729 -0.403179 0.244270 -0.025286 -0.033960 0.171919 -0.264978 0.010674 0.161972 -0.019292 -0.012744 0.152047 -0.339420 0.201964 0.038402 -0.169162 -0.179998 0.070782 -0.445087 0.131692 -0.268925 0.159297 -0.001525 -0.348705 0.164142 0.401725 0.238643 0.257305 -0.109070 0.088024 0.080570 0.022403 0.019839 0.251386 0.162512 -0.009393 -0.106690 -0.108632 0.229293 0.043614 -0.015711 0.041117 -0.010707 0.132113 -0.010979 0.092839 0.164531 0.351881 0.143879 -0.003490 0.091210 0.259837 0.161383 0.391677 0.338541 -0.296369 0.239585 0.298376 0.056013 -0.156930 -0.012367 -0.134517 -0.016878 0.158984 0.041628 -0.363761 0.242084 -0.072525 0.412057 0.021839 0.167425 -0.135370 -0.154989 0.164575 -0.051242 0.131661 -0.038345 0.378097 0.127251 -0.251346 0.055374 -0.409286 -0.183409 0.106057 -0.220639 0.317717 0.209331 0.248100 0.043545 -0.187599 -0.293250 -0.211232 -0.011202 -0.022831 -0.257821 0.141169 -0.063123 0.052778 0.253590 0.235289 0.001239 -0.192853 -0.157146 -0.315157 -0.051162 -0.201653 -0.234659 -0.044884 0.188616 -0.128740 0.273309 0.027930 0.073488 0.221326 0.241409 0.216369 -0.226889 -0.088256 0.161592 -0.263694 -0.239873 0.018650 -0.024931 -0.172160 0.273887 -0.136569 0.262533 0.161932 0.092436 0.146770 0.030446 0.073945 0.027833 0.137113 -0.239515 0.124107 0.158438 -0.109624 -0.230068 0.130831 -0.355260 -0.225581 
Копилка -0.148233 -0.045601 0.222087 -0.116666 0.025759 -0.076307 0.239593 -0.177176 -0.195216 0.426627 0.169969 0.157039 -0.200394 -0.253284 -0.054832 0.039690 0.164526 0.380408 -0.176294 -0.043510 -0.140502 0.118235 0.234723 0.170502 0.247708 0.174738 0.098981 0.111231 0.357118 0.118527 0.146347 -0.028956 -0.220590 -0.110733 -0.044270 -0.052821 0.238539 -0.121464 0.004384 0.360985 -0.239362 0.051506 0.030678 -0.253762 0.074496 -0.179069 -0.130267 -0.103694 0.462097 -0.187845 0.120638 -0.111848 0.243832 0.045377 -0.194047 -0.096558 -0.159238 0.229322 0.044480 -0.411010 0.240434 -0.026197 -0.029997 0.171684 -0.263777 0.009959 0.167258 -0.015827 -0.016752 0.149815 -0.345682 0.200921 0.034713 -0.171032 -0.178266 0.065633 -0.447476 0.131130 -0.270234 0.155210 -0.007706 -0.352386 0.165471 0.404167 0.239174 0.257489 -0.111942 0.084700 0.077962 0.020147 0.015585 0.255025 0.160994 -0.008518 -0.107528 -0.110065 0.231234 0.043469 -0.019972 0.044626 -0.007254 0.134100 -0.006917 0.093881 0.159842 0.353011 0.148328 -0.007853 0.093618 0.260024 0.161548 0.397903 0.344088 -0.293565 0.238226 0.296938 0.057665 -0.156706 -0.011382 -0.132393 -0.020634 0.162306 0.037660 -0.365340 0.243651 -0.077922 0.416573 0.022089 0.164990 -0.131857 -0.156484 0.160348 -0.051626 0.131474 -0.033405 0.380273 0.128974 -0.256583 0.062059 -0.408241 -0.188143 0.097604 -0.221297 0.325235 0.214922 0.247992 0.045637 -0.190498 -0.296901 -0.213205 -0.010452 -0.021066 -0.260474 0.137959 -0.066697 0.055570 0.252222 0.242171 0.000549 -0.194476 -0.157542 -0.318982 -0.053293 -0.204062 -0.234478 -0.048669 0.186962 -0.130118 0.272782 0.024696 0.068659 0.226505 0.241724 0.217829 -0.231918 -0.090268 0.163604 -0.263082 -0.241135 0.021176 -0.026330 -0.170527 0.277858 -0.132027 0.269238 0.160125 0.099109 0.147540 0.036531 0.074633 0.023358 0.132752 -0.241370 0.125317 0.155692 -0.112888 -0.234092 0.132925 -0.359366 -0.223638 
Часы -0.125825 -0.039186 0.190054 -0.099016 0.019212 -0.063502 0.207924 -0.150231 -0.160939 0.368617 0.152034 0.132853 -0.174074 -0.215364 -0.046321 0.033443 0.136444 0.323408 -0.149276 -0.037317 -0.121746 0.097719 0.200322 0.150585 0.213702 0.154452 0.082160 0.095095 0.306013 0.099787 0.123635 -0.029436 -0.183328 -0.097040 -0.043007 -0.044793 0.207118 -0.108821 0.003139 0.310472 -0.200406 0.044345 0.024072 -0.216437 0.063428 -0.149562 -0.109285 -0.093379 0.393345 -0.162884 0.102863 -0.090271 0.206301 0.037369 -0.163833 -0.078776 -0.135949 0.195599 0.037747 -0.350574 0.207550 -0.027839 -0.025325 0.147002 -0.228501 0.007925 0.141903 -0.012427 -0.013200 0.130414 -0.293102 0.175429 0.028257 -0.144405 -0.149264 0.060164 -0.380028 0.113699 -0.235134 0.132651 -0.002550 -0.299782 0.140610 0.344662 0.206493 0.222324 -0.097277 0.072494 0.068863 0.017848 0.013578 0.214329 0.135541 -0.008796 -0.093275 -0.096381 0.199241 0.034500 -0.017849 0.033764 -0.005957 0.111571 -0.003896 0.079709 0.136203 0.305232 0.129907 -0.006443 0.077006 0.221353 0.137785 0.337883 0.290525 -0.254014 0.206150 0.252538 0.052817 -0.135537 -0.008464 -0.116835 -0.015371 0.136007 0.034642 -0.311311 0.204219 -0.065150 0.355638 0.020219 0.139884 -0.114844 -0.131700 0.135979 -0.042052 0.114749 -0.031760 0.325039 0.111396 -0.218770 0.054141 -0.351215 -0.159732 0.085841 -0.188374 0.273912 0.185249 0.212670 0.036227 -0.165433 -0.252349 -0.182700 -0.009541 -0.022004 -0.224152 0.123324 -0.060180 0.044485 0.219655 0.206889 0.000209 -0.167313 -0.132740 -0.270603 -0.042625 -0.176184 -0.202715 -0.039320 0.159652 -0.110529 0.235840 0.023816 0.056047 0.193283 0.207379 0.186051 -0.198594 -0.076398 0.138423 -0.226842 -0.207552 0.017160 -0.021808 -0.146170 0.234476 -0.115735 0.229538 0.140248 0.087768 0.126001 0.030463 0.060520 0.018934 0.117584 -0.207000 0.107553 0.129675 -0.097229 -0.201046 0.112256 -0.310654 -0.189390 
Украшение -0.129108 -0.043120 0.192988 -0.104249 0.016596 -0.060574 0.209635 -0.149766 -0.164427 0.369351 0.147023 0.131279 -0.176099 -0.218638 -0.045596 0.029325 0.142254 0.329245 -0.148704 -0.041773 -0.118631 0.096208 0.199530 0.146335 0.210361 0.154625 0.081474 0.094112 0.303285 0.098378 0.123713 -0.026660 -0.183357 -0.096596 -0.042895 -0.044690 0.209724 -0.110571 0.002509 0.308222 -0.201130 0.041321 0.025610 -0.217633 0.062784 -0.150840 -0.111738 -0.087327 0.395721 -0.162413 0.100436 -0.089215 0.209371 0.041357 -0.163330 -0.088865 -0.131980 0.200961 0.043725 -0.351081 0.204837 -0.021953 -0.029579 0.150497 -0.229778 0.012018 0.141097 -0.015054 -0.013818 0.127688 -0.297846 0.167133 0.030980 -0.137910 -0.150931 0.057135 -0.382548 0.111945 -0.237578 0.131311 -0.001088 -0.295606 0.143729 0.346404 0.200303 0.218014 -0.098404 0.069562 0.070210 0.021366 0.008732 0.216193 0.138132 -0.008131 -0.095201 -0.097725 0.197770 0.032240 -0.016457 0.038649 -0.008071 0.111531 -0.008487 0.079388 0.136906 0.300451 0.130809 -0.002015 0.078236 0.222814 0.136997 0.340353 0.292201 -0.248871 0.210942 0.256035 0.048296 -0.131029 -0.011755 -0.117414 -0.016265 0.136957 0.034397 -0.312988 0.204873 -0.065781 0.352336 0.021336 0.137786 -0.114783 -0.132513 0.138042 -0.036815 0.112084 -0.031839 0.331154 0.109049 -0.216860 0.054753 -0.346662 -0.162723 0.086811 -0.190145 0.279652 0.180956 0.210809 0.036899 -0.165818 -0.254235 -0.180886 -0.009102 -0.020668 -0.220571 0.116369 -0.057501 0.054635 0.215317 0.207488 -0.001186 -0.169049 -0.136348 -0.272584 -0.038718 -0.170815 -0.204614 -0.043148 0.160288 -0.109166 0.231587 0.021285 0.058522 0.191591 0.203421 0.192444 -0.202942 -0.071397 0.139901 -0.224634 -0.205912 0.015613 -0.019224 -0.146799 0.236217 -0.113789 0.228134 0.139944 0.079676 0.130947 0.023811 0.064463 0.024951 0.113533 -0.205568 0.103384 0.128993 -0.095871 -0.198738 0.111856 -0.311415 -0.189183 
Футболка -0.126240 -0.041828 0.188670 -0.097422 0.023795 -0.061755 0.201623 -0.150684 -0.157561 0.359464 0.146234 0.131280 -0.170444 -0.207670 -0.045080 0.032773 0.135597 0.321964 -0.145007 -0.033947 -0.117170 0.097191 0.196266 0.139003 0.210875 0.145491 0.078084 0.087273 0.295682 0.100433 0.125408 -0.026028 -0.185461 -0.090085 -0.037532 -0.038746 0.196899 -0.099202 0.002090 0.301553 -0.196575 0.040627 0.024019 -0.209546 0.064355 -0.145160 -0.111055 -0.090569 0.390304 -0.153720 0.100090 -0.093584 0.205972 0.038249 -0.163469 -0.082653 -0.129053 0.191918 0.039139 -0.343534 0.200661 -0.025702 -0.027941 0.141404 -0.223928 0.006358 0.141056 -0.014698 -0.011143 0.122923 -0.288764 0.170145 0.033553 -0.137516 -0.149181 0.058150 -0.379139 0.117092 -0.227195 0.128354 -0.001413 -0.296234 0.135803 0.337742 0.205065 0.218617 -0.094334 0.071553 0.067090 0.017356 0.017286 0.211867 0.135701 -0.006640 -0.088429 -0.092932 0.198194 0.036922 -0.013108 0.036153 -0.011740 0.110922 -0.004655 0.081489 0.135373 0.296759 0.124000 -0.006828 0.078841 0.220788 0.134455 0.330290 0.281679 -0.250415 0.200244 0.248537 0.051469 -0.130051 -0.010923 -0.110683 -0.016124 0.132283 0.038874 -0.305639 0.201006 -0.061690 0.346455 0.019173 0.141813 -0.112779 -0.131452 0.138512 -0.041254 0.109836 -0.028593 0.320047 0.109450 -0.214607 0.049628 -0.340652 -0.155982 0.085677 -0.181434 0.265656 0.176082 0.211308 0.042973 -0.155497 -0.252913 -0.181882 -0.009067 -0.015432 -0.215740 0.118048 -0.056337 0.042082 0.214429 0.201010 -0.004413 -0.164598 -0.134125 -0.269892 -0.043273 -0.172177 -0.199881 -0.035092 0.157241 -0.108094 0.232692 0.023581 0.059080 0.188522 0.205353 0.187940 -0.193711 -0.074943 0.141560 -0.218290 -0.201835 0.016485 -0.020726 -0.140015 0.234321 -0.114982 0.224231 0.137383 0.082821 0.125920 0.025943 0.063278 0.019837 0.115135 -0.199101 0.109648 0.135099 -0.094543 -0.197173 0.109258 -0.300393 -0.191320 
подарочный -0.116079 -0.036758 0.178426 -0.092783 0.020033 -0.059342 0.189648 -0.142895 -0.153452 0.344592 0.134281 0.125532 -0.158041 -0.200877 -0.042493 0.029932 0.131327 0.302454 -0.135044 -0.038915 -0.110549 0.092914 0.186515 0.138772 0.196826 0.139450 0.078818 0.084765 0.283193 0.093960 0.115731 -0.022667 -0.175547 -0.086955 -0.037233 -0.036251 0.190916 -0.098099 0.003864 0.291158 -0.185968 0.043901 0.025367 -0.202889 0.061378 -0.140187 -0.106807 -0.085245 0.365170 -0.146481 0.093033 -0.089115 0.192133 0.038302 -0.152796 -0.073606 -0.122594 0.184254 0.036190 -0.324686 0.193566 -0.026171 -0.024100 0.139024 -0.212521 0.005774 0.130950 -0.013712 -0.013577 0.118612 -0.275802 0.161269 0.028427 -0.133513 -0.140281 0.056244 -0.355786 0.110133 -0.217439 0.126543 -0.004532 -0.282356 0.130505 0.322244 0.191798 0.206812 -0.085209 0.068580 0.061032 0.019029 0.012434 0.201971 0.129859 -0.008893 -0.085840 -0.090236 0.185378 0.033892 -0.018012 0.031292 -0.010596 0.107734 -0.005665 0.076153 0.130755 0.278133 0.118021 -0.002602 0.074838 0.207895 0.130608 0.312219 0.273332 -0.238510 0.196052 0.235401 0.043045 -0.125651 -0.008497 -0.104038 -0.013159 0.128866 0.030621 -0.292287 0.191916 -0.058394 0.330805 0.018161 0.131252 -0.108071 -0.124363 0.128825 -0.041963 0.106227 -0.028082 0.303120 0.103690 -0.201670 0.051346 -0.328799 -0.149208 0.080462 -0.177526 0.259723 0.169589 0.197785 0.036216 -0.154268 -0.233514 -0.168221 -0.004365 -0.019176 -0.204564 0.110724 -0.050709 0.041897 0.201968 0.192746 0.002174 -0.155165 -0.125457 -0.254405 -0.042244 -0.162766 -0.189404 -0.035451 0.148936 -0.106085 0.216941 0.021175 0.057521 0.178873 0.193691 0.172063 -0.180557 -0.073048 0.130589 -0.210749 -0.192011 0.015216 -0.022824 -0.133547 0.218488 -0.104991 0.211304 0.131641 0.079173 0.118694 0.025952 0.062841 0.018617 0.110430 -0.194379 0.099529 0.123510 -0.091201 -0.184052 0.105369 -0.283983 -0.181477 
Сейф -0.183495 -0.055787 0.275534 -0.142659 0.028035 -0.091681 0.294110 -0.219963 -0.235916 0.530396 0.209798 0.193378 -0.247662 -0.306377 -0.068968 0.048834 0.197568 0.465171 -0.216217 -0.058066 -0.173024 0.140544 0.286039 0.211220 0.306406 0.214271 0.118859 0.133825 0.435858 0.144375 0.179491 -0.039039 -0.263697 -0.137629 -0.058244 -0.060169 0.292016 -0.152478 0.002967 0.444198 -0.293237 0.060826 0.034873 -0.308300 0.089731 -0.215300 -0.162098 -0.130462 0.566087 -0.232280 0.142989 -0.132233 0.294821 0.054309 -0.242468 -0.118352 -0.195442 0.286741 0.057865 -0.500209 0.298778 -0.035851 -0.036611 0.211199 -0.325328 0.014853 0.206931 -0.021923 -0.017312 0.184756 -0.423401 0.246720 0.045924 -0.209033 -0.213853 0.083563 -0.551049 0.163947 -0.331786 0.191482 -0.007347 -0.433721 0.206444 0.495327 0.292359 0.317655 -0.137296 0.106210 0.094095 0.026003 0.020316 0.312540 0.195279 -0.012133 -0.129980 -0.137949 0.287198 0.047853 -0.020715 0.049916 -0.011192 0.161530 -0.010514 0.114796 0.199080 0.437748 0.178866 -0.010898 0.112847 0.321656 0.197780 0.485077 0.417816 -0.366518 0.300279 0.366981 0.072136 -0.189022 -0.016722 -0.167515 -0.022938 0.196838 0.046267 -0.446609 0.295928 -0.091942 0.505351 0.026390 0.206164 -0.166355 -0.191435 0.197551 -0.062023 0.166920 -0.047475 0.468828 0.160481 -0.311684 0.072097 -0.500453 -0.231246 0.122385 -0.272066 0.398299 0.261700 0.305677 0.058374 -0.233559 -0.365021 -0.262545 -0.009426 -0.026291 -0.316342 0.172464 -0.082897 0.066866 0.313261 0.300486 -0.003407 -0.243731 -0.195949 -0.394273 -0.063874 -0.250781 -0.291413 -0.058866 0.228562 -0.158179 0.333997 0.038312 0.086256 0.273777 0.294167 0.268884 -0.283465 -0.105661 0.199179 -0.329018 -0.293560 0.026290 -0.031140 -0.208851 0.340783 -0.166604 0.330400 0.199542 0.121702 0.186547 0.039989 0.092164 0.031591 0.164280 -0.296016 0.151518 0.193719 -0.134533 -0.282915 0.160070 -0.444404 -0.273341 
Блокнот -0.129511 -0.040265 0.189222 -0.101170 0.017755 -0.062566 0.207859 -0.150855 -0.163234 0.365937 0.150140 0.133202 -0.175481 -0.214274 -0.048134 0.032734 0.139389 0.329800 -0.148456 -0.035305 -0.120957 0.102780 0.201131 0.145109 0.211761 0.151938 0.088446 0.096619 0.304305 0.098971 0.123977 -0.026407 -0.187156 -0.095598 -0.035557 -0.042779 0.201492 -0.106584 0.006715 0.309028 -0.199885 0.043864 0.026660 -0.218303 0.064812 -0.150861 -0.114774 -0.091658 0.395762 -0.161392 0.100611 -0.095948 0.207385 0.040572 -0.166399 -0.082919 -0.129785 0.195801 0.039738 -0.348296 0.209277 -0.023122 -0.028617 0.144423 -0.227580 0.009295 0.139739 -0.016994 -0.013340 0.129260 -0.294568 0.177263 0.030290 -0.144291 -0.152421 0.057444 -0.383654 0.116116 -0.227761 0.133578 0.000629 -0.298512 0.142701 0.346816 0.202751 0.226305 -0.089380 0.076443 0.067155 0.019378 0.019517 0.215310 0.142473 -0.009747 -0.091534 -0.096244 0.198220 0.038707 -0.015327 0.035164 -0.010322 0.108129 -0.010101 0.076729 0.142413 0.304540 0.128382 -0.004104 0.072581 0.217453 0.142355 0.339149 0.284790 -0.251730 0.206595 0.257490 0.054552 -0.133820 -0.010756 -0.117824 -0.015635 0.136487 0.038334 -0.312839 0.201483 -0.063434 0.351551 0.021351 0.143059 -0.115772 -0.127091 0.136622 -0.041278 0.112545 -0.029699 0.327667 0.108490 -0.216321 0.056730 -0.350878 -0.155512 0.087075 -0.187637 0.272993 0.179798 0.213410 0.043848 -0.164259 -0.251120 -0.184718 -0.010878 -0.016191 -0.223904 0.117803 -0.058204 0.047182 0.217212 0.207440 -0.003606 -0.167246 -0.131102 -0.269947 -0.041713 -0.176094 -0.205273 -0.043391 0.155578 -0.113176 0.234335 0.023327 0.062761 0.190484 0.209358 0.189426 -0.193978 -0.072390 0.140046 -0.227210 -0.209545 0.017764 -0.021550 -0.150051 0.238860 -0.114068 0.227188 0.137301 0.080341 0.128095 0.029648 0.061003 0.017900 0.120163 -0.206161 0.109082 0.131829 -0.096529 -0.198142 0.106947 -0.303019 -0.192801 
настольные -0.138671 -0.042225 0.208233 -0.108148 0.022290 -0.066453 0.225259 -0.161837 -0.174129 0.395293 0.162176 0.145698 -0.187880 -0.230234 -0.049908 0.038213 0.148896 0.352198 -0.162018 -0.043042 -0.134135 0.108226 0.219298 0.159502 0.232413 0.166459 0.092889 0.104796 0.331110 0.107749 0.132622 -0.029808 -0.199581 -0.101650 -0.043503 -0.047624 0.224377 -0.114470 0.002642 0.335831 -0.219792 0.047232 0.029937 -0.236654 0.068469 -0.164396 -0.121191 -0.100294 0.424415 -0.172380 0.111261 -0.099879 0.226003 0.042863 -0.182391 -0.089624 -0.148550 0.214891 0.040916 -0.375970 0.224349 -0.029328 -0.025539 0.158945 -0.246035 0.008791 0.155767 -0.017450 -0.014345 0.137569 -0.320373 0.187662 0.034968 -0.155251 -0.162523 0.064158 -0.413118 0.125500 -0.253396 0.148298 -0.002888 -0.328773 0.152888 0.372883 0.220059 0.238210 -0.101173 0.077879 0.073846 0.019233 0.014495 0.231620 0.145992 -0.009376 -0.100942 -0.100717 0.214245 0.039963 -0.015806 0.039876 -0.007876 0.122465 -0.004961 0.087925 0.148980 0.329183 0.140279 -0.007089 0.086233 0.242377 0.147678 0.363497 0.316246 -0.271176 0.224307 0.274338 0.058395 -0.144633 -0.012993 -0.123297 -0.020051 0.149651 0.032938 -0.336697 0.223886 -0.070432 0.382391 0.018897 0.151556 -0.124761 -0.143863 0.146428 -0.043068 0.125641 -0.031264 0.352364 0.122721 -0.235814 0.058750 -0.378841 -0.170207 0.095314 -0.206765 0.298314 0.198379 0.231250 0.040931 -0.176479 -0.272845 -0.196215 -0.010772 -0.021892 -0.239174 0.132532 -0.063757 0.049876 0.234862 0.223654 0.000683 -0.180192 -0.147292 -0.296426 -0.046962 -0.190469 -0.221916 -0.040928 0.174257 -0.120734 0.254737 0.028870 0.062133 0.205964 0.221155 0.203889 -0.214772 -0.081762 0.149682 -0.247155 -0.222599 0.015872 -0.024311 -0.156767 0.256698 -0.124759 0.248312 0.153667 0.095588 0.139439 0.028939 0.070647 0.024906 0.126349 -0.225472 0.115912 0.141130 -0.104595 -0.216012 0.122525 -0.332094 -0.207481 
Держатель-магнит -0.186231 -0.057509 0.277236 -0.143770 0.028650 -0.094407 0.298598 -0.222048 -0.239820 0.536625 0.215614 0.197038 -0.254367 -0.314874 -0.067216 0.049519 0.200042 0.474438 -0.217728 -0.060171 -0.174708 0.143508 0.292015 0.216178 0.306813 0.216512 0.121114 0.138693 0.443029 0.143644 0.184586 -0.038056 -0.273321 -0.135033 -0.057043 -0.064428 0.301204 -0.154154 0.007738 0.451507 -0.294652 0.065782 0.036229 -0.315868 0.088417 -0.222884 -0.166966 -0.132502 0.572920 -0.236287 0.144435 -0.133555 0.305517 0.058851 -0.238799 -0.118429 -0.197593 0.288929 0.061117 -0.507475 0.299879 -0.037133 -0.040630 0.218020 -0.335300 0.014850 0.208585 -0.022270 -0.022587 0.188388 -0.427941 0.251299 0.046368 -0.207277 -0.220477 0.085733 -0.560474 0.167642 -0.338169 0.196179 -0.004228 -0.435230 0.208805 0.506326 0.300508 0.326530 -0.135626 0.104978 0.097660 0.025190 0.019447 0.317875 0.199777 -0.012049 -0.131864 -0.137578 0.290423 0.051491 -0.022798 0.050181 -0.012595 0.163848 -0.011700 0.115674 0.203301 0.442537 0.184644 -0.008710 0.112801 0.325391 0.203372 0.495054 0.427388 -0.371682 0.302595 0.370895 0.075676 -0.193169 -0.013404 -0.168422 -0.023938 0.199387 0.046745 -0.455434 0.297678 -0.094253 0.513837 0.026556 0.211551 -0.167642 -0.190519 0.198708 -0.062066 0.168123 -0.044398 0.475517 0.165259 -0.317537 0.077975 -0.509770 -0.233757 0.126859 -0.275984 0.400397 0.268418 0.305928 0.062047 -0.240073 -0.366463 -0.267646 -0.009533 -0.025952 -0.321896 0.173504 -0.081224 0.065068 0.317882 0.303136 -0.001452 -0.247867 -0.192683 -0.397428 -0.062407 -0.251311 -0.293533 -0.059138 0.229599 -0.161751 0.338919 0.035993 0.087931 0.276987 0.301398 0.274297 -0.290073 -0.110618 0.198552 -0.332257 -0.302834 0.021365 -0.035047 -0.216043 0.345011 -0.168752 0.331178 0.199155 0.125550 0.185666 0.041616 0.091186 0.028031 0.164771 -0.301752 0.153110 0.192402 -0.142054 -0.286657 0.163037 -0.447263 -0.275890 
Подушка -0.112246 -0.032040 0.170693 -0.086362 0.018639 -0.055445 0.181345 -0.133481 -0.148148 0.328145 0.131274 0.119093 -0.154956 -0.191697 -0.039635 0.026913 0.120792 0.291388 -0.135629 -0.033509 -0.111889 0.090211 0.176237 0.128028 0.186941 0.130640 0.076994 0.081782 0.268075 0.083490 0.110462 -0.024419 -0.167983 -0.085243 -0.033520 -0.034344 0.182150 -0.091743 0.004913 0.272013 -0.179474 0.037718 0.023432 -0.194568 0.057078 -0.135628 -0.102863 -0.077663 0.347952 -0.140757 0.088613 -0.086410 0.186617 0.035139 -0.151462 -0.074699 -0.117511 0.171063 0.034578 -0.306447 0.181378 -0.021909 -0.022533 0.131722 -0.200598 0.012838 0.129131 -0.015450 -0.013670 0.110276 -0.255608 0.157174 0.028007 -0.125649 -0.133140 0.056503 -0.337377 0.103059 -0.205223 0.119250 -0.001168 -0.265521 0.125527 0.304667 0.184087 0.196517 -0.081267 0.064069 0.063803 0.019063 0.014264 0.190124 0.126579 -0.009407 -0.081238 -0.083241 0.174684 0.031863 -0.010338 0.035267 -0.007370 0.098161 -0.011113 0.068279 0.126246 0.270453 0.107953 -0.008567 0.068349 0.195296 0.124927 0.300376 0.254184 -0.221711 0.181251 0.227731 0.046958 -0.120493 -0.011177 -0.100159 -0.017699 0.118864 0.028969 -0.279781 0.184477 -0.055261 0.308843 0.015707 0.127393 -0.104134 -0.117313 0.125719 -0.036914 0.099700 -0.026109 0.291426 0.096238 -0.190969 0.048167 -0.308060 -0.137959 0.074956 -0.167810 0.245339 0.164116 0.189509 0.037181 -0.144357 -0.223401 -0.164921 -0.007757 -0.017167 -0.196539 0.105422 -0.047806 0.040092 0.196343 0.179506 -0.004687 -0.151556 -0.120455 -0.243098 -0.036314 -0.154494 -0.180403 -0.032676 0.144378 -0.097699 0.209849 0.018037 0.054824 0.172855 0.182944 0.166548 -0.179100 -0.064806 0.124797 -0.200953 -0.185319 0.015627 -0.016427 -0.127804 0.212078 -0.102543 0.197160 0.125414 0.072262 0.116940 0.027137 0.056684 0.019761 0.106236 -0.183595 0.096528 0.116840 -0.084420 -0.171313 0.096121 -0.270442 -0.170007 
Шоколад -0.117157 -0.037610 0.173649 -0.087186 0.021455 -0.055442 0.186295 -0.138050 -0.151061 0.337335 0.130022 0.123480 -0.154609 -0.197087 -0.043119 0.027113 0.123363 0.298710 -0.135972 -0.033297 -0.116385 0.093859 0.179912 0.128803 0.189317 0.137499 0.075559 0.087080 0.274862 0.090815 0.111797 -0.019923 -0.167455 -0.085762 -0.038919 -0.035889 0.185597 -0.093256 0.003571 0.283170 -0.183911 0.038477 0.023865 -0.196799 0.062465 -0.139943 -0.103742 -0.085308 0.357494 -0.142684 0.091026 -0.085315 0.185709 0.040835 -0.150528 -0.075023 -0.116907 0.176376 0.033415 -0.316797 0.187137 -0.018313 -0.021150 0.135586 -0.206382 0.009870 0.127453 -0.015098 -0.015138 0.116257 -0.263371 0.156720 0.026118 -0.129965 -0.136547 0.052910 -0.349047 0.106602 -0.206359 0.123596 -0.000026 -0.275637 0.127716 0.310497 0.186682 0.201150 -0.085265 0.066139 0.065315 0.018653 0.013884 0.197975 0.131222 -0.004611 -0.084991 -0.083414 0.178989 0.032942 -0.010373 0.032606 -0.004764 0.100443 -0.011386 0.069663 0.124385 0.275066 0.113440 -0.006168 0.070235 0.199852 0.124433 0.304454 0.261204 -0.227065 0.188983 0.230542 0.048945 -0.124442 -0.008255 -0.106390 -0.014435 0.120155 0.030808 -0.284014 0.188471 -0.057489 0.317964 0.012248 0.131810 -0.104663 -0.120405 0.128365 -0.038005 0.105796 -0.026139 0.296749 0.097593 -0.197221 0.047630 -0.315573 -0.140787 0.077936 -0.172783 0.250073 0.165150 0.194726 0.035101 -0.148298 -0.232074 -0.165766 -0.008812 -0.016220 -0.199621 0.105438 -0.047735 0.042673 0.200145 0.183995 -0.003904 -0.151855 -0.120320 -0.250408 -0.039992 -0.155507 -0.183378 -0.037953 0.147454 -0.098317 0.210607 0.021379 0.055159 0.176189 0.187554 0.171739 -0.179726 -0.067165 0.126086 -0.202770 -0.189019 0.018095 -0.019186 -0.130375 0.215605 -0.106142 0.209234 0.125525 0.077316 0.115554 0.026373 0.060192 0.015434 0.107567 -0.186616 0.098680 0.121580 -0.086381 -0.177486 0.096817 -0.277581 -0.173558 
декоративная -0.117152 -0.037196 0.173747 -0.087675 0.020312 -0.058276 0.184674 -0.137123 -0.151918 0.337045 0.131160 0.123104 -0.161027 -0.194758 -0.037926 0.025784 0.121400 0.295068 -0.137298 -0.037871 -0.112939 0.093300 0.183522 0.128740 0.193835 0.138293 0.075143 0.083347 0.275966 0.086473 0.112065 -0.021871 -0.169798 -0.085559 -0.035920 -0.037060 0.184776 -0.097211 0.006936 0.278454 -0.184800 0.039948 0.022164 -0.196082 0.058753 -0.139777 -0.104128 -0.082090 0.357983 -0.142487 0.092946 -0.089238 0.189552 0.039315 -0.155268 -0.074594 -0.119855 0.179851 0.037576 -0.312820 0.189402 -0.018530 -0.026927 0.132772 -0.205015 0.009597 0.132274 -0.016597 -0.010475 0.113338 -0.262376 0.160784 0.025515 -0.132004 -0.139354 0.057770 -0.349443 0.103720 -0.207317 0.118407 -0.000595 -0.274632 0.125075 0.313514 0.189295 0.203348 -0.078794 0.067320 0.064954 0.019830 0.011765 0.199047 0.129541 -0.006613 -0.083978 -0.082493 0.179017 0.031222 -0.010913 0.033100 -0.006871 0.103766 -0.009557 0.073911 0.125085 0.275537 0.114468 -0.006309 0.073066 0.202318 0.123721 0.309790 0.259680 -0.229802 0.188579 0.230837 0.044744 -0.123575 -0.009944 -0.101472 -0.014421 0.122992 0.032308 -0.285473 0.184604 -0.055590 0.318671 0.012128 0.129921 -0.101986 -0.120761 0.127807 -0.041487 0.102893 -0.026556 0.297113 0.099206 -0.196965 0.047331 -0.317380 -0.142229 0.082046 -0.168967 0.246562 0.166406 0.193379 0.035168 -0.147774 -0.231422 -0.165254 -0.009267 -0.017004 -0.203703 0.104227 -0.046221 0.044660 0.197916 0.183146 -0.004652 -0.154831 -0.125335 -0.249589 -0.037838 -0.157708 -0.187101 -0.033397 0.144525 -0.096848 0.215703 0.018016 0.058407 0.178639 0.188891 0.167914 -0.183123 -0.065115 0.124340 -0.206244 -0.187429 0.018251 -0.018058 -0.133493 0.219223 -0.105478 0.203887 0.126506 0.077557 0.119658 0.026612 0.055160 0.017655 0.104178 -0.186525 0.100121 0.120062 -0.087321 -0.175850 0.096662 -0.277039 -0.170890 
Мешочек -0.148958 -0.048406 0.224007 -0.119019 0.022006 -0.070877 0.240985 -0.181199 -0.194717 0.436172 0.176171 0.160663 -0.202104 -0.256377 -0.052318 0.035683 0.164445 0.387197 -0.179024 -0.048351 -0.148574 0.119413 0.234956 0.170403 0.251667 0.180889 0.099428 0.112796 0.364071 0.113968 0.150101 -0.032572 -0.222239 -0.110709 -0.046374 -0.049959 0.242366 -0.123787 0.005326 0.371740 -0.239855 0.052426 0.029417 -0.255140 0.076051 -0.183344 -0.133337 -0.104678 0.468256 -0.189822 0.124250 -0.112350 0.246854 0.047804 -0.199933 -0.097318 -0.156400 0.235065 0.044370 -0.414544 0.248696 -0.025656 -0.035169 0.179253 -0.269329 0.014748 0.171534 -0.016015 -0.018058 0.150579 -0.347119 0.204248 0.039229 -0.168240 -0.181775 0.071683 -0.453822 0.139594 -0.272437 0.159570 -0.004512 -0.358112 0.166854 0.411879 0.241518 0.265372 -0.112510 0.084464 0.081667 0.022900 0.018563 0.259175 0.166612 -0.008732 -0.113959 -0.111506 0.234909 0.040969 -0.015656 0.041062 -0.011494 0.133450 -0.010010 0.099281 0.165420 0.357938 0.152610 -0.007416 0.091744 0.263841 0.165196 0.403007 0.348729 -0.299838 0.248258 0.304109 0.062623 -0.160812 -0.012240 -0.133150 -0.021230 0.166994 0.039877 -0.369677 0.247389 -0.073831 0.419847 0.020027 0.170378 -0.137944 -0.153792 0.162047 -0.052990 0.136519 -0.037582 0.385547 0.131647 -0.260579 0.060425 -0.417724 -0.190454 0.103907 -0.221255 0.325156 0.216380 0.250988 0.045217 -0.195018 -0.302634 -0.220967 -0.008886 -0.024902 -0.268848 0.141015 -0.063406 0.054682 0.257589 0.244529 -0.000405 -0.199988 -0.160926 -0.321223 -0.048869 -0.209517 -0.241886 -0.044716 0.188751 -0.131512 0.276861 0.027953 0.075078 0.229729 0.249628 0.221492 -0.233073 -0.084459 0.164402 -0.270014 -0.247864 0.019564 -0.029420 -0.176181 0.282149 -0.134865 0.267779 0.166629 0.103276 0.151257 0.031525 0.074525 0.022378 0.139836 -0.246223 0.127344 0.159416 -0.113038 -0.232282 0.131423 -0.364714 -0.229938 
Печенье -0.115325 -0.035361 0.169797 -0.090844 0.019917 -0.058053 0.184219 -0.133199 -0.147493 0.328994 0.135120 0.120736 -0.153649 -0.190375 -0.041782 0.028297 0.119719 0.292453 -0.134911 -0.033726 -0.110051 0.086964 0.179810 0.133717 0.191657 0.137964 0.073973 0.085068 0.271020 0.085852 0.114368 -0.026708 -0.169589 -0.082372 -0.038524 -0.042683 0.184229 -0.092692 0.002870 0.276808 -0.180131 0.037970 0.021324 -0.191802 0.056891 -0.141301 -0.099763 -0.078540 0.353293 -0.147180 0.096236 -0.085541 0.190203 0.038842 -0.151913 -0.073997 -0.117099 0.175009 0.035489 -0.313645 0.187621 -0.023740 -0.027187 0.132744 -0.205327 0.011726 0.128848 -0.014097 -0.014887 0.114859 -0.263096 0.160301 0.027719 -0.126694 -0.138889 0.052881 -0.345006 0.102644 -0.209472 0.120168 -0.005256 -0.268362 0.125550 0.310802 0.182956 0.201215 -0.081155 0.064404 0.060222 0.016419 0.014911 0.192472 0.126597 -0.006241 -0.085083 -0.086789 0.180396 0.034007 -0.014629 0.036055 -0.009741 0.103210 -0.010793 0.075702 0.124634 0.272115 0.113004 -0.003910 0.072399 0.200298 0.126603 0.300866 0.259296 -0.228721 0.187729 0.229610 0.048548 -0.119019 -0.007186 -0.104447 -0.016921 0.121195 0.033425 -0.277611 0.184361 -0.056904 0.318484 0.015423 0.128247 -0.102230 -0.121895 0.126103 -0.039739 0.098848 -0.026600 0.290449 0.098164 -0.193509 0.045606 -0.310948 -0.140900 0.078360 -0.170242 0.246112 0.164037 0.191720 0.035623 -0.143223 -0.229043 -0.161947 -0.009377 -0.014969 -0.201341 0.108326 -0.047105 0.043944 0.200454 0.186973 -0.000386 -0.153153 -0.118707 -0.247301 -0.038951 -0.153600 -0.183602 -0.037379 0.140569 -0.095369 0.210923 0.022736 0.056833 0.173713 0.187949 0.167582 -0.181007 -0.063646 0.128145 -0.205201 -0.186578 0.013011 -0.016475 -0.130971 0.211913 -0.104403 0.204596 0.124378 0.076973 0.115008 0.024303 0.054136 0.017366 0.103128 -0.188575 0.098240 0.124340 -0.088746 -0.177818 0.101408 -0.275141 -0.170993 
предсказанием_именное -0.124275 -0.037224 0.183145 -0.095538 0.022391 -0.057536 0.200910 -0.146533 -0.163000 0.354827 0.141019 0.131658 -0.167617 -0.206519 -0.041660 0.030518 0.131977 0.317379 -0.148636 -0.033870 -0.121386 0.096297 0.195005 0.144198 0.205954 0.143304 0.079973 0.093461 0.295909 0.096457 0.121940 -0.028794 -0.181889 -0.091379 -0.037975 -0.046004 0.201808 -0.103192 0.006058 0.300382 -0.195740 0.044999 0.024806 -0.206582 0.060335 -0.152137 -0.112521 -0.084383 0.385585 -0.155760 0.105163 -0.087255 0.205862 0.041989 -0.163618 -0.081006 -0.124106 0.188361 0.034342 -0.342121 0.204828 -0.026284 -0.027956 0.143320 -0.220163 0.011657 0.141245 -0.013003 -0.015468 0.124383 -0.287886 0.172247 0.032492 -0.139272 -0.146964 0.057545 -0.374607 0.111172 -0.222655 0.131566 -0.001177 -0.291191 0.135738 0.332711 0.199798 0.220208 -0.086960 0.072597 0.066316 0.021423 0.013709 0.209659 0.132921 -0.007800 -0.087623 -0.092006 0.197103 0.032778 -0.014971 0.038063 -0.008847 0.109249 -0.009225 0.079733 0.135274 0.296305 0.121409 -0.004119 0.080176 0.216758 0.132593 0.328390 0.279624 -0.246540 0.201791 0.252903 0.051279 -0.128223 -0.007471 -0.111620 -0.019646 0.134007 0.034856 -0.304179 0.200260 -0.062535 0.345127 0.018937 0.137201 -0.113099 -0.131361 0.137998 -0.038996 0.108546 -0.031898 0.315344 0.104725 -0.208728 0.049895 -0.336816 -0.150237 0.085635 -0.179547 0.264797 0.177351 0.210664 0.036153 -0.153797 -0.246129 -0.176831 -0.009312 -0.016645 -0.215065 0.113642 -0.050119 0.042649 0.216677 0.201739 -0.001455 -0.167503 -0.129689 -0.267321 -0.038384 -0.167608 -0.197443 -0.035883 0.154505 -0.103136 0.230367 0.024483 0.058655 0.186669 0.204190 0.182417 -0.194068 -0.068973 0.139923 -0.222842 -0.200498 0.012166 -0.020245 -0.145545 0.230015 -0.114509 0.220581 0.136087 0.079119 0.125089 0.026014 0.058796 0.020389 0.116166 -0.203439 0.102167 0.131401 -0.094764 -0.189517 0.105705 -0.300322 -0.186508 
Носки_мужские -0.142812 -0.043029 0.215545 -0.111651 0.026551 -0.071082 0.229396 -0.169827 -0.184164 0.412436 0.162049 0.152585 -0.192717 -0.241267 -0.053355 0.037604 0.150608 0.365328 -0.164742 -0.046137 -0.140077 0.112589 0.224444 0.166354 0.239297 0.169556 0.094771 0.105668 0.341000 0.110793 0.143263 -0.028511 -0.210311 -0.102064 -0.043567 -0.044267 0.232069 -0.116118 0.007935 0.350228 -0.222650 0.049380 0.028842 -0.241630 0.073029 -0.171402 -0.127127 -0.104648 0.445282 -0.177716 0.115645 -0.110415 0.232088 0.042634 -0.185033 -0.090914 -0.149919 0.223342 0.042140 -0.391520 0.229215 -0.025808 -0.028381 0.166884 -0.257768 0.009347 0.157866 -0.017270 -0.018328 0.145792 -0.331940 0.194646 0.035229 -0.161284 -0.170726 0.067413 -0.426479 0.129872 -0.263198 0.148968 -0.001648 -0.339230 0.158585 0.383961 0.230167 0.245077 -0.101961 0.080553 0.079163 0.019603 0.014955 0.245195 0.157912 -0.008034 -0.105210 -0.106483 0.228317 0.039548 -0.019025 0.040370 -0.012297 0.128163 -0.007727 0.088996 0.154446 0.342855 0.143016 -0.008314 0.084314 0.246865 0.154404 0.375173 0.325873 -0.280014 0.234200 0.287684 0.054667 -0.151617 -0.016085 -0.131025 -0.018399 0.151148 0.040534 -0.352676 0.231550 -0.076744 0.394031 0.018870 0.162734 -0.129714 -0.145012 0.155899 -0.047926 0.130755 -0.031178 0.366863 0.125848 -0.244157 0.060215 -0.388685 -0.177742 0.099020 -0.212227 0.304919 0.205654 0.235940 0.045826 -0.180357 -0.280152 -0.201310 -0.009980 -0.022695 -0.250857 0.131246 -0.063531 0.052296 0.244923 0.232854 -0.004397 -0.190793 -0.148890 -0.307983 -0.043853 -0.195599 -0.223801 -0.044633 0.181046 -0.124946 0.263694 0.026177 0.068258 0.213300 0.234062 0.208235 -0.219759 -0.084464 0.157818 -0.253763 -0.233196 0.022422 -0.022340 -0.162018 0.267024 -0.130133 0.253729 0.157261 0.091894 0.143412 0.030512 0.075585 0.021159 0.131784 -0.233776 0.123116 0.151580 -0.111998 -0.221143 0.121526 -0.347163 -0.211550 
Арахис_именной -0.122904 -0.037702 0.184503 -0.095936 0.016651 -0.061165 0.199450 -0.148071 -0.156164 0.353285 0.140041 0.129051 -0.166713 -0.210529 -0.041796 0.028030 0.129253 0.312259 -0.144309 -0.039370 -0.120528 0.094378 0.189165 0.142598 0.203250 0.144044 0.076718 0.088768 0.293446 0.095050 0.119518 -0.027905 -0.180429 -0.090796 -0.041263 -0.041674 0.198559 -0.101006 0.001777 0.295918 -0.196784 0.041493 0.025525 -0.209429 0.062648 -0.149727 -0.108085 -0.086034 0.379525 -0.155663 0.097882 -0.088330 0.199610 0.034875 -0.162193 -0.076781 -0.128790 0.189941 0.039431 -0.335885 0.199438 -0.023079 -0.025892 0.142190 -0.219915 0.006721 0.137095 -0.016776 -0.014669 0.122748 -0.282781 0.167203 0.030228 -0.136829 -0.149825 0.054941 -0.367027 0.109246 -0.221305 0.128129 -0.006342 -0.290485 0.139471 0.332698 0.197487 0.215898 -0.090132 0.070292 0.067805 0.019932 0.013748 0.210017 0.131613 -0.007153 -0.088439 -0.093045 0.190585 0.035541 -0.016797 0.035615 -0.006131 0.105773 -0.009922 0.080111 0.135662 0.291596 0.123819 -0.004462 0.078060 0.212104 0.134733 0.329083 0.277396 -0.246440 0.197721 0.246086 0.049437 -0.130538 -0.007370 -0.109377 -0.019348 0.131431 0.031530 -0.300126 0.199794 -0.062253 0.337756 0.016388 0.137282 -0.107487 -0.128643 0.132708 -0.041282 0.109089 -0.029646 0.318068 0.110022 -0.208725 0.053467 -0.337258 -0.155323 0.085399 -0.183571 0.263999 0.173932 0.201699 0.039774 -0.154066 -0.243257 -0.175486 -0.005465 -0.014849 -0.215408 0.112875 -0.051989 0.048442 0.209776 0.200786 -0.002005 -0.162606 -0.127646 -0.267746 -0.041541 -0.167439 -0.196035 -0.036783 0.151579 -0.107882 0.227265 0.022538 0.060482 0.187031 0.199267 0.179864 -0.195747 -0.070104 0.133069 -0.217975 -0.197085 0.016165 -0.022745 -0.138448 0.230278 -0.113241 0.221853 0.134488 0.085092 0.125040 0.025585 0.058720 0.018265 0.111651 -0.199732 0.106402 0.126897 -0.091833 -0.194021 0.108272 -0.296930 -0.183329 
Стакан -0.123119 -0.038598 0.184870 -0.104190 0.022980 -0.061312 0.205695 -0.148249 -0.158240 0.370040 0.146831 0.133243 -0.169545 -0.211620 -0.045130 0.025236 0.136542 0.324764 -0.146683 -0.037412 -0.124340 0.094511 0.200538 0.144446 0.210472 0.149937 0.081377 0.091656 0.304331 0.100423 0.124487 -0.026265 -0.187049 -0.097649 -0.041912 -0.037298 0.201755 -0.103948 0.004192 0.311878 -0.203528 0.040781 0.021235 -0.213891 0.065725 -0.150622 -0.111153 -0.096221 0.389358 -0.152257 0.103650 -0.097784 0.207720 0.039621 -0.167046 -0.078771 -0.130063 0.194761 0.040775 -0.348090 0.209035 -0.023874 -0.033184 0.147617 -0.229990 0.010864 0.140974 -0.013298 -0.011690 0.127354 -0.292997 0.167583 0.031478 -0.145271 -0.148292 0.059594 -0.383663 0.111993 -0.230020 0.134122 -0.002462 -0.297537 0.143709 0.344845 0.207835 0.216530 -0.090185 0.072415 0.065729 0.021180 0.015093 0.216730 0.138979 -0.009418 -0.094986 -0.099369 0.200796 0.032602 -0.011685 0.032881 -0.011802 0.110152 -0.008931 0.078585 0.141631 0.304866 0.126329 -0.006268 0.077814 0.223169 0.134334 0.338324 0.288231 -0.251059 0.203152 0.255086 0.051886 -0.129946 -0.010641 -0.117585 -0.015202 0.139186 0.036696 -0.308813 0.206348 -0.065288 0.353143 0.020281 0.142371 -0.117286 -0.130434 0.137708 -0.042678 0.116287 -0.033759 0.322010 0.108202 -0.215786 0.049788 -0.350850 -0.159689 0.091330 -0.186246 0.279454 0.178617 0.208788 0.040101 -0.156967 -0.252780 -0.182495 -0.008605 -0.021735 -0.222387 0.119250 -0.052103 0.049571 0.220224 0.203267 0.002494 -0.160246 -0.135314 -0.274436 -0.040839 -0.171009 -0.202913 -0.039110 0.163403 -0.110909 0.234167 0.024781 0.058933 0.187633 0.205910 0.184841 -0.191455 -0.077437 0.135353 -0.225422 -0.203761 0.018304 -0.024280 -0.144825 0.233972 -0.114229 0.228389 0.139034 0.083951 0.123324 0.022881 0.065885 0.022404 0.113637 -0.204399 0.109141 0.132874 -0.092251 -0.194238 0.108387 -0.304908 -0.191931 
виски -0.127319 -0.036312 0.187441 -0.101230 0.024154 -0.060637 0.208002 -0.150385 -0.159581 0.373244 0.148460 0.135083 -0.171580 -0.216860 -0.048091 0.026053 0.138939 0.326466 -0.150473 -0.039593 -0.124644 0.095348 0.207010 0.145152 0.211556 0.151190 0.087294 0.093772 0.307985 0.100118 0.123821 -0.027444 -0.191321 -0.100678 -0.038325 -0.035323 0.207417 -0.105542 0.003168 0.315401 -0.202051 0.043074 0.022210 -0.217652 0.067004 -0.153599 -0.112780 -0.096427 0.396516 -0.156923 0.101940 -0.098367 0.210412 0.043071 -0.166973 -0.083154 -0.135594 0.202495 0.040865 -0.353166 0.210618 -0.026932 -0.033102 0.151169 -0.234999 0.011848 0.141037 -0.015032 -0.013437 0.126512 -0.299441 0.173048 0.035419 -0.146738 -0.154813 0.060150 -0.390626 0.112751 -0.237051 0.138933 -0.001266 -0.302012 0.147149 0.348949 0.205933 0.220746 -0.094397 0.074543 0.067342 0.023805 0.010656 0.220907 0.139382 -0.005123 -0.093022 -0.098955 0.203882 0.034706 -0.015869 0.033752 -0.011531 0.112511 -0.009860 0.080541 0.140029 0.310140 0.132652 -0.007460 0.077625 0.227400 0.137096 0.342895 0.296373 -0.253397 0.211790 0.260977 0.050084 -0.134405 -0.012794 -0.120517 -0.016198 0.143539 0.033841 -0.319836 0.207064 -0.067672 0.360463 0.017491 0.145340 -0.114729 -0.132692 0.137331 -0.047147 0.115981 -0.035551 0.326349 0.109849 -0.220583 0.049037 -0.357968 -0.158350 0.087732 -0.191742 0.284031 0.184835 0.215509 0.039283 -0.162389 -0.250857 -0.184601 -0.004702 -0.025911 -0.224299 0.122666 -0.054458 0.050462 0.220037 0.206528 0.000615 -0.164336 -0.134518 -0.278142 -0.043260 -0.173830 -0.207444 -0.038530 0.163854 -0.115586 0.235099 0.024382 0.060307 0.195067 0.206738 0.187922 -0.193304 -0.079242 0.140839 -0.229067 -0.204741 0.019584 -0.023555 -0.149153 0.234872 -0.115102 0.232759 0.140757 0.085489 0.130845 0.024412 0.067712 0.024421 0.113771 -0.206028 0.107941 0.138576 -0.096703 -0.201397 0.108773 -0.310813 -0.193245 
Боди -0.115997 -0.035831 0.176637 -0.091548 0.016985 -0.058436 0.184034 -0.137623 -0.148937 0.343837 0.137310 0.121327 -0.160942 -0.193450 -0.042321 0.032754 0.124618 0.304564 -0.135003 -0.034134 -0.111894 0.088024 0.185892 0.132095 0.198537 0.133234 0.074288 0.084438 0.276707 0.094026 0.118593 -0.026387 -0.176170 -0.087313 -0.033471 -0.035981 0.188591 -0.092955 0.002758 0.283581 -0.183434 0.038339 0.016276 -0.197867 0.062592 -0.140640 -0.102366 -0.082180 0.365675 -0.148190 0.097738 -0.089933 0.190879 0.040912 -0.156526 -0.075026 -0.120334 0.183496 0.038655 -0.319049 0.190580 -0.022958 -0.022406 0.133777 -0.210415 0.004654 0.128155 -0.017463 -0.011673 0.117834 -0.267740 0.159926 0.028513 -0.133729 -0.143380 0.055531 -0.353867 0.107928 -0.209889 0.118916 -0.001800 -0.280811 0.129869 0.318120 0.193750 0.206934 -0.090853 0.065677 0.059795 0.016352 0.019850 0.198477 0.131117 -0.011245 -0.084474 -0.084998 0.187640 0.036635 -0.014617 0.037358 -0.010290 0.107129 -0.003880 0.072913 0.125457 0.276495 0.114876 -0.003307 0.072472 0.206557 0.125105 0.311111 0.266293 -0.236620 0.193420 0.234470 0.044688 -0.120845 -0.009483 -0.104470 -0.015497 0.126709 0.036025 -0.287469 0.188318 -0.059979 0.325912 0.017555 0.130454 -0.102542 -0.118095 0.130198 -0.041414 0.100862 -0.025850 0.298214 0.104408 -0.195614 0.045488 -0.323759 -0.147584 0.081579 -0.176086 0.251919 0.169514 0.199928 0.041061 -0.149119 -0.234496 -0.167892 -0.005333 -0.020537 -0.201455 0.112791 -0.053280 0.042555 0.202496 0.187670 -0.001931 -0.155945 -0.122992 -0.248513 -0.039518 -0.160715 -0.189719 -0.037024 0.149906 -0.103487 0.220027 0.022847 0.055918 0.176499 0.187441 0.174277 -0.178215 -0.065674 0.131039 -0.208672 -0.188628 0.014425 -0.022091 -0.133103 0.218016 -0.107576 0.207735 0.132762 0.080842 0.115189 0.021265 0.059985 0.022450 0.110288 -0.187065 0.103079 0.129360 -0.085833 -0.180316 0.104838 -0.283374 -0.179490 
малыша -0.112882 -0.031916 0.168219 -0.086854 0.016365 -0.052192 0.180843 -0.136350 -0.144999 0.327351 0.130455 0.119627 -0.151733 -0.188048 -0.041731 0.027963 0.121478 0.289867 -0.129836 -0.035062 -0.107427 0.083316 0.178230 0.127353 0.188092 0.129610 0.072437 0.082979 0.263633 0.088740 0.109708 -0.026708 -0.164491 -0.085863 -0.034635 -0.035959 0.178032 -0.092628 0.001200 0.275338 -0.174838 0.039004 0.016955 -0.191757 0.056335 -0.136414 -0.101431 -0.080886 0.347643 -0.141851 0.091560 -0.085374 0.180433 0.036064 -0.145264 -0.072540 -0.119328 0.171542 0.034468 -0.308892 0.180428 -0.017906 -0.022799 0.127935 -0.201625 0.004256 0.124569 -0.015945 -0.012043 0.112591 -0.258217 0.155850 0.031180 -0.126158 -0.134959 0.050873 -0.337085 0.101457 -0.202327 0.118333 -0.003064 -0.266703 0.122175 0.307636 0.183928 0.197621 -0.081833 0.065602 0.061510 0.015421 0.017327 0.191491 0.122898 -0.010471 -0.079107 -0.080900 0.179742 0.035652 -0.013632 0.033100 -0.008760 0.100169 -0.005619 0.070725 0.122200 0.265979 0.108272 -0.005869 0.070038 0.196069 0.121771 0.298228 0.254274 -0.222869 0.181312 0.225164 0.043558 -0.118470 -0.009676 -0.103631 -0.012544 0.120899 0.033796 -0.274014 0.181769 -0.057694 0.311423 0.018139 0.125985 -0.100360 -0.113559 0.124299 -0.036341 0.097565 -0.026279 0.285106 0.100358 -0.187497 0.043311 -0.312102 -0.141003 0.077259 -0.164488 0.242418 0.162680 0.190858 0.039167 -0.140449 -0.226389 -0.159758 -0.004879 -0.018937 -0.193082 0.106579 -0.049667 0.041753 0.195062 0.180433 -0.000426 -0.151545 -0.120900 -0.238277 -0.034608 -0.151371 -0.181930 -0.031937 0.142343 -0.100256 0.209027 0.021006 0.054257 0.171718 0.179498 0.166285 -0.169693 -0.061335 0.126189 -0.198496 -0.182069 0.013402 -0.021356 -0.128748 0.208271 -0.103990 0.202436 0.124408 0.074987 0.111435 0.020727 0.058357 0.020152 0.104049 -0.181924 0.095067 0.120136 -0.082241 -0.175594 0.096330 -0.267408 -0.170105 
180 -0.042908 -0.013406 0.066922 -0.036384 0.009080 -0.019688 0.071101 -0.051434 -0.056120 0.125131 0.048699 0.043632 -0.057461 -0.072566 -0.015978 0.012348 0.049901 0.114345 -0.052476 -0.014981 -0.041960 0.033254 0.070962 0.049654 0.075422 0.050005 0.028471 0.030966 0.105806 0.033244 0.045282 -0.011425 -0.062684 -0.031957 -0.012053 -0.014035 0.073050 -0.037146 0.002205 0.107432 -0.069743 0.016143 0.009017 -0.075871 0.023653 -0.050219 -0.039786 -0.030881 0.133871 -0.056052 0.035191 -0.032697 0.069018 0.014337 -0.055659 -0.028275 -0.044359 0.065596 0.011756 -0.117755 0.070123 -0.008965 -0.008992 0.048827 -0.075879 0.002619 0.048230 -0.005533 -0.002749 0.044333 -0.101879 0.061596 0.010359 -0.047035 -0.052191 0.020264 -0.129425 0.041030 -0.079083 0.047086 -0.002291 -0.103034 0.048711 0.120610 0.070455 0.078014 -0.033154 0.027251 0.025083 0.007573 0.004271 0.077339 0.049143 -0.004065 -0.030883 -0.033467 0.066686 0.014665 -0.005099 0.012657 -0.000487 0.039150 -0.001632 0.027655 0.047038 0.102047 0.045766 -0.003216 0.024796 0.076713 0.047653 0.114317 0.100609 -0.086725 0.072977 0.088489 0.015374 -0.044526 -0.004071 -0.038600 -0.003779 0.045724 0.009948 -0.108205 0.070622 -0.020175 0.120740 0.008484 0.048996 -0.039631 -0.046602 0.044941 -0.016638 0.038938 -0.010739 0.112207 0.038397 -0.072332 0.015939 -0.121641 -0.056600 0.027927 -0.067408 0.096714 0.065227 0.072552 0.015261 -0.054410 -0.085554 -0.062551 -0.005071 -0.005283 -0.078754 0.041003 -0.019073 0.014223 0.072664 0.070703 0.000050 -0.056056 -0.044267 -0.093260 -0.014675 -0.058160 -0.070675 -0.015573 0.057129 -0.037072 0.081123 0.009103 0.021759 0.066818 0.070654 0.064858 -0.069913 -0.023460 0.046856 -0.079830 -0.071628 0.004204 -0.007462 -0.052058 0.080440 -0.041152 0.077029 0.048340 0.029549 0.041849 0.011606 0.022542 0.006952 0.037730 -0.071532 0.038074 0.045450 -0.030967 -0.067869 0.038683 -0.103707 -0.067010 
интерьера -0.135599 -0.047404 0.208718 -0.112702 0.020303 -0.065058 0.226124 -0.161825 -0.172698 0.397055 0.160088 0.145307 -0.191582 -0.233135 -0.046275 0.037341 0.149876 0.351448 -0.165413 -0.044951 -0.128014 0.105156 0.218944 0.159842 0.231723 0.166186 0.091067 0.100468 0.327797 0.110217 0.134853 -0.032557 -0.201350 -0.101494 -0.044548 -0.047712 0.227251 -0.116422 0.005569 0.336624 -0.218704 0.047458 0.025793 -0.229307 0.064321 -0.162547 -0.121436 -0.094409 0.428127 -0.173993 0.105725 -0.096074 0.223835 0.042761 -0.176742 -0.091993 -0.145399 0.211759 0.045584 -0.372938 0.221015 -0.023612 -0.028905 0.158742 -0.246292 0.012105 0.149493 -0.015583 -0.015424 0.137734 -0.318374 0.186110 0.035489 -0.147494 -0.162252 0.059300 -0.414847 0.123598 -0.255015 0.140618 -0.006172 -0.319148 0.154673 0.373124 0.217888 0.235480 -0.105713 0.077686 0.071342 0.022895 0.010228 0.236922 0.147518 -0.004325 -0.104402 -0.102144 0.212583 0.038042 -0.012756 0.036390 -0.004582 0.117597 -0.004283 0.085672 0.149695 0.328388 0.137354 -0.002492 0.079649 0.239805 0.149293 0.366227 0.313743 -0.272490 0.227728 0.271092 0.053748 -0.141187 -0.016105 -0.129538 -0.016646 0.144643 0.033711 -0.336881 0.218210 -0.069383 0.379443 0.020455 0.147548 -0.122584 -0.140958 0.150591 -0.042406 0.121338 -0.033088 0.355835 0.117480 -0.232595 0.057068 -0.373564 -0.174437 0.091969 -0.206549 0.302045 0.199044 0.227484 0.041841 -0.176263 -0.273101 -0.197287 -0.005775 -0.018008 -0.238238 0.126615 -0.057584 0.059069 0.234908 0.223421 -0.004450 -0.177801 -0.143477 -0.289472 -0.043193 -0.186897 -0.217703 -0.042152 0.169240 -0.116495 0.247008 0.022014 0.061387 0.205800 0.218089 0.207934 -0.217217 -0.081352 0.147260 -0.245321 -0.218104 0.017964 -0.020873 -0.158910 0.254346 -0.118584 0.245043 0.148850 0.086806 0.141606 0.025744 0.071480 0.024252 0.120558 -0.224228 0.113269 0.138827 -0.101682 -0.212642 0.121463 -0.336322 -0.208164 
ухода_за -0.129373 -0.041182 0.199519 -0.103428 0.017553 -0.062218 0.212638 -0.154718 -0.170510 0.378237 0.155505 0.137578 -0.176209 -0.225771 -0.045382 0.030667 0.142982 0.339966 -0.148101 -0.047191 -0.127486 0.100250 0.205252 0.152239 0.225239 0.158665 0.083077 0.096618 0.309520 0.106254 0.131072 -0.026881 -0.191896 -0.096396 -0.037267 -0.038606 0.215953 -0.104676 0.008304 0.321890 -0.203731 0.048927 0.029038 -0.225270 0.062587 -0.158404 -0.117976 -0.098673 0.403817 -0.164417 0.100281 -0.098015 0.217937 0.043073 -0.170935 -0.081886 -0.137698 0.205386 0.044255 -0.355526 0.210947 -0.027993 -0.024378 0.153993 -0.233535 0.008443 0.144615 -0.010977 -0.011564 0.135751 -0.309680 0.181017 0.031904 -0.150909 -0.156565 0.056784 -0.394029 0.119874 -0.244047 0.136262 -0.009683 -0.307939 0.145264 0.360252 0.214337 0.230135 -0.095984 0.070665 0.067482 0.019119 0.011223 0.221917 0.144322 -0.004803 -0.095540 -0.095893 0.206214 0.034352 -0.014878 0.034537 -0.011418 0.117373 -0.004425 0.081823 0.140846 0.310674 0.133023 -0.005456 0.084011 0.227623 0.143669 0.351545 0.298888 -0.264268 0.219285 0.266284 0.050609 -0.143044 -0.012520 -0.113467 -0.019177 0.141153 0.031683 -0.319856 0.213975 -0.070993 0.367747 0.016309 0.149714 -0.112116 -0.135963 0.141199 -0.044323 0.114283 -0.034490 0.336089 0.113166 -0.223276 0.055947 -0.362200 -0.163773 0.087420 -0.196482 0.286230 0.188196 0.214618 0.041236 -0.171635 -0.259984 -0.188106 -0.004464 -0.019279 -0.233495 0.124824 -0.057266 0.044804 0.225653 0.213776 0.000030 -0.176830 -0.140960 -0.281826 -0.042229 -0.179450 -0.214507 -0.041004 0.162213 -0.116941 0.239513 0.023562 0.062547 0.197112 0.215370 0.193047 -0.206042 -0.081949 0.141166 -0.234077 -0.215181 0.017244 -0.026388 -0.147745 0.244968 -0.120403 0.233519 0.147144 0.086268 0.130732 0.026738 0.064303 0.023391 0.116897 -0.217321 0.112984 0.137253 -0.095781 -0.201269 0.113777 -0.315256 -0.197719 
